tree
version=v4
num_class=5
num_tree_per_iteration=5
label_index=0
max_feature_idx=36
objective=multiclass num_class:5
feature_names=Column_0 Column_1 Column_2 Column_3 Column_4 Column_5 Column_6 Column_7 Column_8 Column_9 Column_10 Column_11 Column_12 Column_13 Column_14 Column_15 Column_16 Column_17 Column_18 Column_19 Column_20 Column_21 Column_22 Column_23 Column_24 Column_25 Column_26 Column_27 Column_28 Column_29 Column_30 Column_31 Column_32 Column_33 Column_34 Column_35 Column_36
feature_infos=[-1.302355170249939:4.7321586608886719] [-2.7512328624725342:6.9965958595275879] [-0.58098423480987549:10] [-0.20008708536624908:5.3464870452880859] [-0.41963812708854675:2.5375533103942871] [-0.2282782644033432:4.9428873062133789] [-0.30677598714828491:4.9276752471923828] [-0.4787352979183197:2.5377910137176514] [-0.023737493902444839:10] [-0.019126484170556068:10] [-0.29499197006225586:5.0044646263122559] [-0.39933469891548157:2.5953936576843262] [-0.18991652131080627:5.3752999305725098] [-0.21112498641014099:5.1831679344177246] [-0.88698005676269531:6.7633609771728516] [-0.49649918079376221:10] [-0.43651580810546875:10] [-0.63973397016525269:10] [-0.30969598889350891:10] [-0.63973397016525269:10] [-0.0014595380052924156:6.140289306640625] [-2.6019792556762695:0.42570284008979797] [-0.12710066139698029:10] [0:1] [0:1] [0:1] none none none [0:1] [0:1] none [0:1] [0:1] [0:1] [0:1] [-1.0484777688980103:1.9796723127365112]
tree_sizes=3488 3503 3472 3447 3462 3463 3519 3529 3480 3464 3507 3538 3534 3513 3471 3472 3553 3558 3493 3513 3528 3557 3542 3516 3494 3535 3577 3544 3524 3486 3502 3557 3540 3519 3527 3517 3577 3548 3519 3512 3507 3571 3550 3535 3513 3523 3570 3558 3537 3539 3510 3565 3547 3530 3484 3541 3579 3555 3544 3495 3509 3575 3568 3527 3474 3515 3577 3552 3550 3518 3550 3561 3547 3509 3525 3524 3594 3562 3533 3497 3574 3596 3540 3510 3508 3574 3596 3533 3521 3531 3534 3574 3541 3557 3543 3551 3584 3552 3538 3533 3576 3587 3561 3531 3530 3535 3571 3544 3530 3556 3537 3558 3553 3540 3539 3552 3574 3553 3531 3543 3540 3576 3533 3558 3537 3537 3574 3558 3548 3513 3541 3597 3538 3540 3537 3523 3515 3594 3532 3537 3596 3573 3546 3533 3514 3520 3529 3591 3552 3557 3578 3538 3553 3566 3495 3569 3561 3598 3550 3538 3575 3549 3575 3541 3525 3546 3523 3604 3548 3521 3554 3631 3584 3582 3571 3517 3562 3606 3549 3565 3591 3559 3625 3552 3533 3559 3576 3604 3558 3547 3485 3522 3614 3554 3572 3553 3542 3592 3569 3566 3563 3521 3591 3580 3563 3553 3521 3554 3540 3567 3561 3592 3622 3540 3567 3551 3513 3559 3580 3593 3556 3519 3523 3557 3532 3485 3516 3615 3524 3545 3534 3550 3564 3573 3523 3571 3633 3596 3570 3571 3592 3597 3566 3546 3581 3611 3518 3597 3573 3599 3527 3558 3609 3553 3574 3559 3598 3610 3544 3520 3570 3619 3580 3556 3570 3542 3587 3586 3543 3563 3596 3608 3569 3558 3539 3588 3593 3610 3566 3578 3576 3561 3563 3555 3520 3575 3553 3603 3539 3589 3597 3633 3614 3550 3538 3576 3535 3577 3545 3528 3586 3631 3585 3526 3550 3552 3610 3565 3544 3550 3581 3624 3599 3515 3586 3616 3564 3564 3548 3572 3530 3563 3511 3525 3541 3569 3639 3570 3561 3532 3545 3614 3627 3565 3590 3586 3593 3575 3531 3585 3544 3582 3585 3561 3536 3595 3581 3593 3569 3577 3597 3612 3620 3550 3522 3530 3545 3588 3540 3576 3599 3613 3647 3581 3559 3593 3616 3510 3561 3527 3538 3538 3498 3544 3570 3598 3613 3612 3531 3582 3565 3605 3585 3543 3520 3587 3543 3588 3531 3563 3649 3552 3581 3567 3530 3552 3593 3640 3532 3602 3547 3555 3518 3564 3553 3524 3613 3488 3549 3574 3551 3619 3510 3547 3531 3560 3582 3545 3572 3538 3580 3633 3641 3518 3556 3580 3579 3656 3556 3543 3532 3578 3579 3551 3495 3569 3642 3617 3563 3599 3580 3620 3533 3533 3552 3513 3604 3610 3509 3511 3555 3596 3555 3525 3543 3565 3569 3593 3559 3582 3557 3595 3575 3547 3594 3568 3641 3639 3520 3508 3560 3583 3598 3572 3592 3551 3618 3620 3564 3474 3572 3579 3575 3560 3547 3588 3575 3602 3545 3556 3553 3557 3569 3571 3543 3536 3587 3584 3580 3510 3562 3661 3634 3563 3531 3543 3607 3514 3565 3607 3503 3592 3601 3533 3513 3557 3646 3599 3563 3600 3529 3543 3554 3555 3539 3526 3573 3588 3570 3511 3540 3591 3585 3556 3487 3515 3571 3592 3495 3517 3557 3619 3616 3559 3519 3568 3554 3572 3554 3569 3561 3600 3637 3539 3527 3570 3577 3613 3534 3548 3539 3622 3564 3554 3512 3545 3624 3640 3535 3532 3604 3582 3587 3569 3549 3582 3531 3603 3582 3524 3566 3567 3604 3585 3512 3554 3570 3582 3595 3588 3516 3551 3587 3530 3576 3529 3596 3605 3580 3537 3572 3531 3559 3564 3528 3553 3624 3633 3562 3488 3543 3588 3573 3555 3506 3577 3511 3531 3611 3544

Tree=0
num_leaves=31
num_cat=0
split_feature=0 20 11 4 10 4 11 12 14 20 20 20 14 5 24 4 10 13 3 20 20 7 20 5 17 11 13 5 3 16
split_gain=2.74124e+06 577163 324005 55331.9 48759.2 33755 14803.3 13662.4 10052.1 8866.96 6411.7 6164.21 6070.26 8510.38 5258.62 5238.11 5203.66 4201.33 3600.91 3538.86 3205.83 3043.91 2783.68 2294.73 2074.77 2010.69 1971.26 1748.1 1737.68 1595.13
threshold=0.94047245383262645 -0.00087915500625967969 -0.32446649670600886 -0.40485216677188868 0.26145096868276602 -0.40485216677188868 -0.35441377758979792 -0.10643826797604559 0.10630240291357042 0.0021577565930783753 0.0021577565930783753 -0.0010961872758343814 1.0000000180025095e-35 -0.20242243260145185 1.0000000180025095e-35 -0.13870492950081822 0.20845640450716021 1.0000000180025095e-35 0.32683746516704565 -0.0011350545100867746 -0.0014564823941327629 0.10292966291308404 -0.0010961872758343814 0.26298247277736669 2.1342018842697148 -0.32446649670600886 1.0000000180025095e-35 0.26298247277736669 -0.17235421389341352 1.055694103240967
decision_type=2 2 2 2 2 2 2 2 2 2 2 2 2 2 2 2 2 2 2 2 2 2 2 2 2 2 2 2 2 2
left_child=1 11 4 8 5 7 10 17 9 16 15 24 13 21 19 -5 26 18 20 -7 -2 -13 -9 -17 -1 -8 28 -16 -3 -11
right_child=2 3 -4 6 -6 14 25 22 -10 29 -12 12 -14 -15 27 23 -18 -19 -20 -21 -22 -23 -24 -25 -26 -27 -28 -29 -30 -31
leaf_value=-2.2285566034721915 -1.7448451462153631 -1.5668581097784195 -2.2167350821182144 -2.228889472663123 -2.228889472663123 -2.1009493942168782 -2.0503465165024251 -2.11251261174634 -2.2083311222985373 -1.8024293463796519 -2.0447761836655083 -2.0603495164891905 -2.2264751803763647 -2.208809669745913 -1.6389873615136035 -1.7254053486956931 -2.1526293201218225 -2.1796213359661465 -1.6067673238085034 -1.7651057693858747 -1.5075055495626959 -1.6153923742879008 -1.7578200395892385 -2.0910416451807659 -1.8543026707548114 -2.2232457938925494 -2.2069629521201075 -1.9111114599704286 -1.6847923705028405 -1.5061150755495829
leaf_weight=625470.90408819914 574.32754920423031 12176.159939974546 8227.4793335199356 242.12994436919689 1069.5047301203012 336.8764443397522 1227.1556278765202 269.81307810544968 296.71640525758266 2643.1544168740511 1255.7485359609127 204.69922833144665 1491.1201566010714 657.37695041298866 5979.2969515025616 2993.9374119639397 161.28999514877796 95.396338790655136 4063.8320453763008 4571.0962283462286 62707.106719881296 617.60681462287903 1229.7549831569195 182.08483739197254 148.16325098276138 1488.3908335566521 50.167556911706924 245.76904176175594 1392.2146881818771 195.08161379396915
leaf_count=4812508 4419 93686 63304 1863 8229 2592 9442 2076 2283 20337 9662 1575 11473 5058 46006 23036 1241 734 31268 35171 482482 4752 9462 1401 1140 11452 386 1891 10712 1501
internal_value=-2.1382 -2.2093 -1.61878 -1.73114 -1.55815 -1.54919 -1.95942 -1.5231 -1.63141 -1.62111 -1.85154 -2.22779 -2.08408 -1.94058 -1.71076 -1.78055 -1.58796 -1.51646 -1.51552 -1.78816 -1.50966 -1.72616 -1.82164 -1.74637 -2.22847 -2.14511 -1.58127 -1.64973 -1.57896 -1.78206
internal_weight=742264 652894 89370.3 24304.2 81142.8 80073.3 7389.45 68940.2 16914.8 16618.1 4673.9 628590 2970.8 1479.68 11133 3418.15 13779.8 67440.7 67345.3 4907.97 63281.4 822.306 1499.57 3176.02 625619 2715.55 13618.5 6225.07 13568.4 2838.24
internal_count=5711142 5023508 687634 187002 624330 616101 56856 530441 130146 127863 35962 4836506 22858 11385 85660 26300 106025 518903 518169 37763 486901 6327 11538 24437 4813648 20894 104784 47897 104398 21838
is_linear=0
shrinkage=1


Tree=1
num_leaves=31
num_cat=0
split_feature=17 33 20 6 3 33 11 10 3 6 7 11 36 1 6 12 7 11 1 5 17 6 2 5 16 17 21 17 17 16
split_gain=1.34137e+06 348344 248684 195389 209938 84577 61759.8 33697.9 22821.3 29230.8 16594.3 14714.6 16225.2 13055.6 12713.3 10721.5 9084.65 8894.95 7446.6 6747.98 5281.83 4731.69 4263.12 2902.05 2087.47 1915.06 46219.4 1570.13 1359.29 1490.63
threshold=-0.63046821951866139 1.0000000180025095e-35 -0.0014557877439074216 0.23337482661008838 2.1017411947250371 1.0000000180025095e-35 2.520525455474854 0.89738577604293834 2.1017411947250371 1.0000000180025095e-35 -0.38635417819023127 2.550472736358643 1.0000000180025095e-35 -0.17302777618169782 -0.28060373663902277 0.67269206047058117 -0.44810356199741358 0.27447918057441717 2.3789919614791875 -0.12035827711224555 -0.54991140961647023 3.4882010221481328 0.64248260855674755 -0.20242243260145185 1.8995858430862429 1.4193588495254519 -2.3393740653991695 -0.62307819724082936 -0.43820086121559138 0.070127189159393324
decision_type=2 2 2 2 2 2 2 2 2 2 2 2 2 2 2 2 2 2 2 2 2 2 2 2 2 2 2 2 2 2
left_child=1 2 8 4 6 7 13 15 9 10 11 12 -1 19 20 17 23 25 -7 -4 -9 -16 -13 -8 -22 27 -27 -2 -19 -30
right_child=5 -3 3 -5 -6 18 16 14 -10 -11 -12 22 -14 -15 21 -17 -18 28 -20 -21 24 -23 -24 -25 -26 26 -28 -29 29 -31
leaf_value=-1.1768625807068485 -1.3303743681351488 -0.98038084485046828 -1.2733580353728902 -0.98047402167281961 -0.98038084485046828 -0.98054106659175855 -1.1928002505982513 -1.3053448563512617 -0.98038084485046828 -0.98039160099839284 -1.3354764126596925 -1.1201865520915408 -1.0823797347529307 -1.3449478293714145 -1.291154320068322 -0.98066304370138324 -1.3010870814384792 -1.2698778184635107 -1.3687451162811251 -1.3432413159583783 -0.99474932938898242 -0.98341119717752767 -1.0368054004486522 -1.2941132371880255 -1.349700911408487 -1.374843999434098 -0.99417192942528776 -1.3732740274047917 -0.98038084485046828 -1.2839571655308193
leaf_weight=40502.493539571762 8654.4461218714714 85624.595214664936 276234.82315331697 30050.392498791218 28572.878324747086 6241.3504044413567 120126.03401577473 754.85284101963043 19452.795980930328 18594.017799139023 3336.003438770771 7926.7152600288391 32970.948050916195 31175.067467093468 9297.769328892231 708.72012877464294 8671.175566971302 6034.260152220726 536.6096253991127 14544.985132098198 3229.2898571491241 527.99142640829086 27080.409040689468 2895.4613844752312 174.64526778459549 59009.822395920753 3371.743616938591 600686.9488016367 356.89482879638672 295.80700653791428
leaf_count=159788 34143 337801 1089785 118553 112724 24623 473914 2978 76744 73356 13161 31272 130075 122990 36681 2796 34209 23806 2117 57382 12740 2083 106836 11423 689 232802 13302 2369794 1408 1167
internal_value=-1.26331 -1.17018 -1.19473 -1.22787 -1.24329 -1.36281 -1.25985 -1.36624 -1.08142 -1.09649 -1.1158 -1.10904 -1.13446 -1.28345 -1.21259 -1.36941 -1.20216 -1.36981 -1.01128 -1.27685 -1.06603 -1.27462 -1.05569 -1.19518 -1.01296 -1.37096 -1.35427 -1.37266 -1.25505 -1.11796
internal_weight=1.44764e+06 747759 662134 512271 482220 699881 453648 693103 149863 130411 111817 108481 73473.4 321955 13984.5 679119 131693 678410 6777.96 290780 4158.79 9825.76 35007.1 123021 3403.94 671723 62381.6 609341 6686.96 652.702
internal_count=5711142 2950013 2612212 2020980 1902427 2761129 1789703 2734389 591232 514488 441132 427971 289863 1270157 55171 2679218 519546 2676422 26740 1147167 16407 38764 138108 485337 13429 2650041 246104 2403937 26381 2575
is_linear=0
shrinkage=1


Tree=2
num_leaves=31
num_cat=0
split_feature=17 7 0 3 20 11 4 21 14 10 4 0 20 11 7 17 1 14 20 20 11 16 1 6 4 5 10 10 6 10
split_gain=971344 484196 422244 291574 217138 88482.7 77363.1 47144.9 24891.8 22565 14113.9 13808.8 8938.47 7403.58 5534.86 5447.58 4514.68 4117.71 3170.6 2919.64 2493.95 2339.21 1711.87 1677.08 1540.98 1453.87 5124.84 2603.06 10182.9 1322.54
threshold=-0.25793522596359247 0.10292966291308404 -1.0991931557655332 0.32683746516704565 -0.0014558813418261705 -0.084888227283954606 2.4562306404113774 -2.3393740653991695 -0.61779376864433277 2.4872227907180791 2.4905862808227544 -0.46489872038364405 -0.0014563761069439349 -0.084888227283954606 -0.46365267038345331 -0.57641112804412831 0.33768199384212499 -0.62754887342452992 -0.0014573530061170457 -0.001456278550904244 0.21458461135625842 0.19948284327983859 4.8195807933807382 0.92332002520561229 -0.35400289297103876 0.83181071281433117 3.9180760383605961 0.7913966476917268 0.71394196152687084 0.26145096868276602
decision_type=2 2 2 2 2 2 2 2 2 2 2 2 2 2 2 2 2 2 2 2 2 2 2 2 2 2 2 2 2 2
left_child=1 2 22 4 10 17 7 -6 -9 20 11 12 -4 -8 -15 -7 24 25 -13 -12 29 -17 -1 -19 -11 -3 27 -27 -29 -2
right_child=9 5 3 -5 6 15 13 8 -10 16 19 18 -14 14 -16 21 -18 23 -20 -21 -22 -23 -24 -25 -26 26 -28 28 -30 -31
leaf_value=-1.374894838429499 -1.374401030541607 -1.3747851747663602 -1.3185727612170668 -1.3748927882606399 -1.3742017010480791 -1.0207422048256991 -1.3743237227881591 -1.0771228166606988 -1.0028286229808392 -1.1923629755420431 -1.3246277573838077 -1.1344942132712108 -1.2077001693323406 -1.1647933772515402 -1.1076832329312594 -1.3472250216789545 -1.266814044448022 -1.1627420043538188 -1.2027152666078682 -1.260651393362348 -1.0568682517688517 -1.0820777854175074 -1.0131934207187436 -1.3470243337218193 -1.0160940846550983 -1.3748608695993303 -1.0022465968530796 -0.98095293590844257 -1.374894838429499 -1.3316370838636595
leaf_weight=86481.852537810802 514167.58175057173 144988.77767497301 19271.306849241257 48776.47152364254 5049.5041792988777 7923.4200662970543 1575.8630331158638 317368.9799836278 52566.451268076897 668.92432755231857 24033.622220993042 8872.6893374919891 11677.406156122684 114138.66700512171 19933.640789330006 798.7042652964592 1832.8881441950798 1329.2304561138153 29339.13760560751 10144.127165079117 248.40691208839417 570.32199203968048 131.04731994867325 785.77696681022644 1918.0562283396721 11775.50153875351 429.89604377746582 873.98676824569702 2632.6063152551651 7335.1012469530106
leaf_count=341183 2028463 572001 76028 192430 19921 31259 6217 1252065 207382 2639 94816 35004 46069 450293 78641 3151 7231 5244 115747 40020 980 2250 517 3100 7567 46456 1696 3448 10386 28938
internal_value=-1.26334 -1.20144 -1.1667 -1.13957 -1.12087 -1.3527 -1.09412 -1.07071 -1.06657 -1.37174 -1.25307 -1.22709 -1.27674 -1.15884 -1.1563 -1.05257 -1.14674 -1.36983 -1.18687 -1.30564 -1.37365 -1.23677 -1.37435 -1.23121 -1.06167 -1.37165 -1.34276 -1.35234 -1.27671 -1.3738
internal_weight=1.44764e+06 921469 749361 662748 613971 172108 510633 374985 369935 526171 103338 69160.5 30948.7 135648 134072 9292.45 4419.87 162816 38211.8 34177.7 521751 1369.03 86612.9 2115.01 2586.98 160701 15712 15282.1 3506.59 521503
internal_count=5711142 3635324 2956333 2614633 2422203 678991 2014519 1479368 1459447 2075818 407684 272848 122097 535151 528934 36660 17437 642331 150751 134836 2058381 5401 341700 8344 10206 633987 61986 60290 13834 2057401
is_linear=0
shrinkage=1


Tree=3
num_leaves=31
num_cat=0
split_feature=19 22 19 15 36 36 30 15 18 16 19 21 22 1 36 16 21 1 16 18 25 21 16 21 2 16 2 21 21 18
split_gain=3.3128e+06 1.12784e+06 30590.7 22238.2 11705.7 10403.7 2657.73 2091.46 2070.57 1348.85 993.756 5204.71 4422.96 983.57 797.578 597.074 430.084 3022.72 1787.62 931.83 362.83 1335.85 330.428 821.47 267.969 181.126 388.652 1714.38 166.842 158.26
threshold=0.45954513549804693 -0.018457850441336628 2.6447335481643681 -0.41226375102996821 1.0132414400577547 1.0132414400577547 1.0000000180025095e-35 -0.43456135690212244 1.5305689573287966 0.070127189159393324 -0.083931364119052873 -2.2466900348663326 1.0000000180025095e-35 0.79296293854713451 -0.82297721505165089 2.0484473705291752 -2.3393740653991695 0.33768199384212499 1.055694103240967 3.6181812286376958 1.0000000180025095e-35 0.31757134199142462 3.9934022426605229 -1.6596903800964353 -0.56671413779258717 1.0290017127990725 -0.57651671767234791 -0.64016482234001149 -2.2466900348663326 1.1634503006935122
decision_type=2 2 2 2 2 2 2 2 2 2 2 2 2 2 2 2 2 2 2 2 2 2 2 2 2 2 2 2 2 2
left_child=3 2 9 -1 6 10 7 14 15 -2 20 -12 -13 24 -3 28 -9 19 -19 -18 25 -22 -10 -24 -14 -5 27 -27 -8 -15
right_child=1 4 -4 5 -6 -7 8 16 22 -11 11 12 13 29 -16 -17 17 18 -20 -21 21 -23 23 -25 -26 26 -28 -29 -30 -31
leaf_value=-0.98729154915976092 -1.374894838429499 -1.373543763109023 -1.3746421392278727 -1.3747551519523156 -0.98038084485046828 -0.98038084485046828 -1.374894838429499 -1.3748909593629961 -1.3482552669031325 -0.9803947437477184 -1.3748449178533033 -0.98547134799342362 -1.2602747234225873 -1.0254681584023575 -0.98850468513008805 -0.99212422197228989 -1.3719579727944051 -0.98709597665606874 -1.2745282537125011 -1.1332323615051312 -1.374894838429499 -1.0073697297230781 -1.374894838429499 -1.0223140025193891 -1.3675579681982206 -1.374894838429499 -1.3702905851136256 -1.1538550831618153 -1.1616440310894824 -1.1962469922805039
leaf_weight=1490.441472530365 86.688942790031433 74.0151207447052 1978.6370977163315 919201.38882172108 782.2282966375351 671.45909196138382 47.653570890426636 77338.196884989738 885.90016096830368 402909.67449635267 12019.09239846468 628.62157344818115 307.97387570142746 62.101728022098541 196.95119458436966 315.07121604681015 13449.713430941105 297.83481806516647 791.09997206926346 165.5201159119606 460.05974024534225 125.97779113054276 152.08586454391479 116.85263925790787 954.08532357215881 1433.4092733263969 9643.2577178478241 464.6223161816597 159.43668133020401 429.89604377746582
leaf_count=5880 342 292 7806 3626378 3086 2649 188 305110 3495 1589535 47417 2480 1215 245 777 1243 53061 1175 3121 653 1815 497 600 461 3764 5655 38044 1833 629 1696
internal_value=-1.26342 -1.05508 -0.982405 -1.37326 -1.36562 -1.37387 -1.36883 -1.37109 -1.24407 -0.98048 -1.37415 -1.34808 -1.21306 -1.29462 -1.09368 -1.07882 -1.37191 -1.35623 -1.19591 -1.36906 -1.37455 -1.29589 -1.31878 -1.2217 -1.34138 -1.3746 -1.36215 -1.32079 -1.21072 -1.17469
internal_weight=1.44764e+06 499748 404975 947892 94772.6 946402 93990.3 92313.3 1677 402996 945730 14401.8 2382.68 1754.06 270.966 522.161 92042.4 14704.2 1088.93 13615.2 931329 586.038 1154.84 268.939 1262.06 930743 11541.3 1898.03 207.09 491.998
internal_count=5711142 1971574 1597683 3739568 373891 3733688 370805 364189 6616 1589877 3731039 56817 9400 6920 1069 2060 363120 58010 4296 53714 3674222 2312 4556 1061 4979 3671910 45532 7488 817 1941
is_linear=0
shrinkage=1


Tree=4
num_leaves=31
num_cat=0
split_feature=14 14 4 13 36 2 21 4 1 3 13 2 12 13 2 4 1 2 8 15 21 12 13 2 2 4 21 4 15 4
split_gain=1.20016e+06 580582 285019 98308.9 39264.5 35188.4 34802.1 33944.3 31991.5 21281.9 17861.9 17575.3 17195.5 15499 12447.1 9892.91 9068.47 8121.56 7547.32 6991.46 6275.88 6088.17 5543.28 5333.37 4229.72 3601.87 3269.28 3173.21 3090.74 2833.25
threshold=-0.86816066503524769 -0.68499091267585743 -0.13870492950081822 -0.18415351957082746 1.0000000180025095e-35 -0.57986804842948902 -2.3393740653991695 0.42316146194934851 3.5106958150863652 0.38230320811271673 1.0000000180025095e-35 -0.58011424541473378 -0.10643826797604559 1.0000000180025095e-35 -0.55497896671295155 -0.13870492950081822 4.3952634334564218 -0.57965090870857228 5.4994945526123056 -0.40483121573925013 -2.3393740653991695 -0.10643826797604559 -0.18415351957082746 -0.57847377657890309 -0.56671413779258717 0.1570142209529877 -2.3702688217163081 0.71888062357902538 -0.39492116868495936 0.42316146194934851
decision_type=2 2 2 2 2 2 2 2 2 2 2 2 2 2 2 2 2 2 2 2 2 2 2 2 2 2 2 2 2 2
left_child=4 2 8 5 26 19 12 21 9 10 11 28 15 17 -13 16 -3 -10 25 -4 27 23 29 -7 -14 -5 -1 -9 -2 -17
right_child=1 6 3 18 -6 7 -8 20 13 -11 -12 14 24 -15 -16 22 -18 -19 -20 -21 -22 -23 -24 -25 -26 -27 -28 -29 -30 -31
leaf_value=-3.255575507832273 -2.2903416554834815 -3.335425744982675 -1.5168422813115912 -1.5768096536121945 -3.1926712650803246 -2.5250981659646796 -3.4633286356721862 -1.8358742408842004 -2.4138848311717025 -2.360398105577465 -1.129152218087023 -3.1134778883760132 -2.7147411446526362 -1.0398177154067438 -2.6097476551882437 -3.0251929211761377 -2.720656488531517 -3.3562810486912555 -2.9488923191162106 -2.5238208376709492 -3.4633286356721862 -2.2346887117409233 -1.6949715906874365 -2.7792352840458827 -1.236282303005515 -1.0717349421348996 -1.0496997776595971 -1.1263632800014527 -2.9326455425089519 -1.3580027211221357
leaf_weight=6.7387674003839484 335.21258812397718 11490.748938918114 437.40353034809232 185.68591391667724 89.411938190460205 1430.1390205509961 198924.83882540837 99.972079787403345 93.192222341895103 470.11120626702905 48.239712975919247 9053.5750924609601 32.461135648190975 29.502652399241924 518.63854955881834 653.90697810798883 245.06102912127972 4884.7434743307531 25.27037775143981 81.851369887590408 15.408766921609638 351.68969621881843 34.26909763365984 1954.1192759759724 47.910992614924908 589.27233712747693 2264.2669365741313 170.60586735606194 96.479425951838493 10.354691371321676
leaf_count=164 8158 279648 10645 4519 2176 34805 4841193 2433 2268 11441 1174 220335 790 718 12622 15914 5964 118879 615 1992 375 8559 834 47557 1166 14341 55105 4152 2348 252
internal_value=-3.38069 -3.40348 -2.90031 -2.2702 -1.13717 -2.45029 -3.45315 -2.55031 -3.11704 -3.01802 -3.04878 -3.05804 -3.2914 -3.32509 -3.08618 -3.30083 -3.32259 -3.33864 -1.24821 -1.67557 -1.5003 -2.63069 -2.93522 -2.67184 -1.83341 -1.19275 -1.05625 -1.38851 -2.43389 -2.9992
internal_weight=234671 232311 20871.1 5341.42 2360.42 4541.19 211440 4021.93 15529.7 10522.3 10052.1 10003.9 12514.7 5007.44 9572.21 12434.3 11735.8 4977.94 800.229 519.255 285.987 3735.95 698.531 3384.26 80.3721 774.958 2271.01 270.578 431.692 664.262
internal_count=5711142 5653697 507936 129993 57445 110518 5145761 97881 377943 256078 244637 243463 304568 121865 232957 302612 285612 121147 19475 12637 6960 90921 17000 82362 1956 18860 55269 6585 10506 16166
is_linear=0
shrinkage=1


Tree=5
num_leaves=31
num_cat=0
split_feature=21 4 5 4 20 20 3 0 6 5 15 12 15 0 20 2 16 8 1 2 1 16 4 2 1 17 1 18 23 20
split_gain=1.97341e+06 87591.1 27800.2 10341.6 5860.66 2963.49 2760.45 2066.35 1803.57 1790.09 1419.1 1403.28 1351.18 1287.77 1248.84 1096.79 963.98 899.331 725.45 623.12 614.759 549.035 523.057 501.832 456.357 386.847 297.636 291.835 272.546 220.438
threshold=-2.3393740653991695 0.42316146194934851 1.814332187175751 -0.13870492950081822 0.0027873106300830845 0.0027873106300830845 0.38230320811271673 -0.33884444832801813 1.3944206237792971 0.26298247277736669 -0.40483121573925013 -0.10643826797604559 -0.40483121573925013 0.70713791251182567 -0.0011998875415883956 -0.34477351605892176 1.0372147560119631 5.4994945526123056 1.857005298137665 -0.57384285330772389 1.1461783647537234 0.42996177077293402 0.1570142209529877 -0.56142905354499806 1.3168609738349917 -0.32481205463409418 0.66643229126930248 -0.19124944508075711 1.0000000180025095e-35 -0.00025704513245727861
decision_type=2 2 2 2 2 2 2 2 2 2 2 2 2 2 2 2 2 2 2 2 2 2 2 2 2 2 2 2 2 2
left_child=1 2 3 5 9 6 7 15 -9 11 20 16 29 25 -8 -1 -5 22 27 -14 -6 -20 -11 -13 -16 26 -7 -15 -4 -3
right_child=-2 12 28 4 10 13 14 8 -10 17 -12 23 19 18 24 -17 -18 -19 21 -21 -22 -23 -24 -25 -26 -27 -28 -29 -30 -31
leaf_value=0.24392052647447127 -0.089501299987711475 -0.085567381509622301 -0.084555464132235233 0.27262403765335369 0.12069828514161432 0.23595975170630987 -0.0027531705989716354 0.33943613805390344 0.30359549664417212 0.1550109345213212 0.26733737610813185 0.20148431896453586 0.28036004690551269 0.11753801200791736 0.21221861788157814 -0.047892207744583339 0.32758275638581213 0.40904409682149484 0.16123958934381 -0.02897356678016344 -0.0044907948992174186 0.35261462468026034 -0.019016024154800609 -0.024178405721885336 0.31465888770463374 0.30067936757063718 0.14564472213765187 0.32509397303293053 0.58792986326769492 -0.013158585421116387
leaf_weight=1319.9979147315025 574016.2426058352 5434.8063139095902 1743.0921698883176 13739.508548416197 691.73113788664341 530.33865767717361 224.88919217884541 112808.0257506147 16036.393353804946 463.41185101121664 368.77836009860039 1437.8397957906127 154.52742213755846 69.642726436257362 1318.6999334543943 142.7262801900506 4157.1472152173519 100.46405200660229 590.25129003822803 112.55170070379972 906.0476698204875 200.94468221068382 275.31764447689056 105.79709891229868 648.84657604247332 279.96157288551331 1169.6712719202042 2484.0419349074364 6.047541342675685 455.69150201976299
leaf_count=6830 4840500 53817 16769 76111 4963 3070 1789 538243 76677 3300 2139 8193 1349 361 7544 1187 21834 595 3021 1042 6560 958 2120 793 3690 1520 6802 12214 51 4252
internal_value=-0.00128028 0.300191 0.314277 0.31861 0.255343 0.328822 0.331761 0.333634 0.334975 0.271327 0.0905187 0.2775 -0.0699912 0.255676 0.220485 0.215447 0.28539 0.128329 0.293511 0.150002 0.0497077 0.209844 0.0901527 0.186018 0.246001 0.191757 0.17382 0.319434 -0.0822304 -0.0799658
internal_weight=741993 167977 161820 160070 22246 137824 132500 130307 128844 20279.5 1966.56 19440.3 6157.58 5324.85 2192.44 1462.72 17896.7 839.194 3344.88 267.079 1597.78 791.196 738.729 1543.64 1967.55 1979.97 1700.01 2553.68 1749.14 5890.5
internal_count=5708294 867794 807334 790514 126608 663906 635960 622937 614920 112946 13662 106931 60460 27946 13023 8017 97945 6015 16554 2391 11523 3979 5420 8986 11234 11392 9872 12575 16820 58069
is_linear=0
shrinkage=0.1


Tree=6
num_leaves=31
num_cat=0
split_feature=17 33 20 6 3 14 11 0 0 3 6 2 1 11 13 33 0 0 11 6 1 11 5 11 36 14 16 3 0 16
split_gain=1.06915e+06 214714 166488 126342 136935 115886 45937.2 16231 15785.4 12075.9 15720 12016.8 11046.1 10832.6 8058.45 7418.36 7133.57 5828.1 5650.14 4344.08 3476.42 3219.19 2882.56 2087.2 2000.82 1607.39 1091.42 960.299 852.778 802.019
threshold=-0.62863484025001515 1.0000000180025095e-35 -0.0014557418180629609 0.23337482661008838 2.1017411947250371 1.8451799154281618 2.520525455474854 0.067479480057954802 0.7473680078983308 4.3203709125518808 -0.085765823721885667 0.64248260855674755 -0.17799726128578183 -0.054940944537520402 1.5420202016830447 1.0000000180025095e-35 0.69506892561912548 0.71518394351005565 2.550472736358643 4.4304022789001474 2.8929510116577153 2.550472736358643 -0.20242243260145185 2.5804200172424321 1.0132414400577547 -0.64329099655151356 1.0372147560119631 1.5470837950706484 0.52207949757576 0.091173149645328536
decision_type=2 2 2 2 2 2 2 2 2 2 2 2 2 2 2 2 2 2 2 2 2 2 2 2 2 2 2 2 2 2
left_child=1 2 8 4 6 13 12 24 9 10 11 21 16 14 15 19 -4 22 -13 -2 -17 -1 -8 29 26 -19 -7 28 -16 -15
right_child=5 -3 3 -5 -6 7 17 -9 -10 -11 -12 18 -14 23 27 20 -18 25 -20 -21 -22 -23 -24 -25 -26 -27 -28 -29 -30 -31
leaf_value=0.046684200653607864 -0.10419817843960311 0.21750696224352165 0.0049315520627384903 0.21744096120111253 0.21749157999913116 -0.096100209700548819 0.062873431559459514 -0.079236566980086673 -0.071781657599775908 0.21750312840168498 0.21753918174024156 0.12552337698576022 -0.074498672708755875 0.033477204913637197 0.23263272801271051 0.21828053519829629 -0.026746621002371768 -0.057858457015655951 0.17826304343641763 0.17584994385760092 -0.10136491793985691 0.11649032591688412 -0.035336958286106383 0.18255319349833021 -0.10787013234611592 0.01467913862030007 0.21948946969144059 0.2192834745853226 -0.059701407759294417 -0.029778394084151606
leaf_weight=19868.983103826642 616621.51544991136 98334.351610988379 141365.31413578987 34028.162493288517 32129.57747220993 110.48651295900345 115513.43874952197 2217.5040293931961 3276.4219279289246 22775.605042785406 21680.060649678111 61191.41461238265 30314.205122798681 3144.848583266139 148.56962253153324 1051.0542181432247 142989.54500846565 4131.8450211882591 30407.870203137398 554.39981004595757 503.11783896386623 9897.0267145037651 3067.9429127275944 623.73659455776215 192.37934854626656 11720.233780011535 13415.301003724337 782.92167460918427 303.91181705892086 5527.3270697593689
leaf_count=74658 2640189 338320 565771 117092 110540 410 439384 8986 13833 78359 74596 225976 129216 12444 542 3631 576151 16765 107082 1979 2130 36426 12225 2235 809 45664 46707 2714 1211 22249
internal_value=0.000769713 0.0793338 0.0594798 0.0312243 0.0180568 -0.0945367 0.00378887 0.171781 0.145578 0.149873 0.139105 0.125094 -0.0171155 -0.101281 -0.102888 -0.103397 -0.010998 0.0527197 0.143031 -0.103947 0.114805 0.0698943 0.0603325 0.00586827 0.212357 -0.00422779 0.216912 0.152258 0.0362848 -0.0068396
internal_weight=1.42789e+06 782692 684358 515260 481232 645197 449103 15935.7 169097 165821 143045 121365 314669 629261 619965 618730 284355 134433 91599.3 617176 1554.17 29766 118581 9295.91 13718.2 15852.1 13525.8 1235.4 452.481 8672.18
internal_count=5708294 2962058 2623738 2012808 1895716 2746236 1785176 56912 610930 597097 518738 444142 1271138 2689324 2652396 2647929 1141922 514038 333058 2642168 5761 111084 451609 36928 47926 62429 47117 4467 1753 34693
is_linear=0
shrinkage=0.1


Tree=7
num_leaves=31
num_cat=0
split_feature=17 6 36 3 21 2 4 10 14 11 29 1 10 10 23 16 14 11 10 16 29 4 14 3 16 10 15 6 17 14
split_gain=793716 351157 294866 204425 149347 142049 47944.9 19338.6 13657.8 8373.56 12362.2 5735.59 5333.82 5162.73 3891.95 2548.86 2275.31 2005.89 1235.09 3522.62 1191.19 711.215 555.067 533.476 482.519 416.838 367.01 431.948 354.301 5527.44
threshold=-0.25793522596359247 0.19049686938524249 -0.82297721505165089 0.16044024378061297 -2.3393740653991695 0.60923829674720775 2.4562306404113774 2.4342281818389897 -0.62482750415801991 2.550472736358643 1.0000000180025095e-35 2.8929510116577153 -0.26849468797445292 -0.21550012379884717 1.0000000180025095e-35 1.0423479080200198 -0.58088770508766163 0.1546900421380997 0.26145096868276602 1.7840896844863894 1.0000000180025095e-35 -0.16827684640884397 0.74923866987228405 0.96469351649284374 1.0577473640441897 1.1093640327453616 -0.41226375102996821 1.0280090570449831 0.16366240382194522 -0.66558536887168873
decision_type=2 2 2 2 2 2 2 2 2 2 2 2 2 2 2 2 2 2 2 2 2 2 2 2 2 2 2 2 2 2
left_child=1 2 11 4 -4 6 8 17 -6 10 -7 -1 -8 -11 21 -16 -3 18 28 -20 22 24 -21 -22 -9 -5 -18 -28 29 -2
right_child=7 16 3 25 5 9 12 14 -10 13 -12 -13 -14 -15 15 -17 26 -19 19 20 23 -23 -24 -25 -26 -27 27 -29 -30 -31
leaf_value=-0.10637805872056097 -0.10643332584098281 -0.10628918503642332 -0.10386567344185374 -0.10635178512807553 0.14966017763197279 -0.02041398640949027 0.082430207683990758 -0.098178962539375442 0.1996441896555137 -0.042931823635638758 0.066600741193588581 0.20125207521033259 0.13282266803849474 0.15935972300913701 -0.10330774094259082 0.21483656778825974 -0.11098729093441968 0.16310365742631594 -0.097198480840236898 0.12626418402186765 0.23415254490217097 0.1454957255348463 -0.056575000500029886 -0.10999909244407209 0.010572237135357753 0.077833502399514337 0.066897694292161039 -0.056846309398283036 -0.10634252204581263 0.16120731758671672
leaf_weight=79914.005215361714 12348.288603454828 119486.74063654244 30913.146273165941 46246.564481660724 355113.19653053582 28701.10116134584 122220.15259982646 588.30999745428562 64612.776496529579 29180.459412440658 37870.759855166078 610.69769954681396 25363.015750139952 1318.6175502389669 282.75359717011452 2302.167825832963 205.69237750768661 278.66994072496891 5631.4207305014133 251.09006609022617 479.2038494348526 289.05390992760658 490.17271807789803 49.714598909020424 1331.0675308704376 123.20069855451584 1002.9995095431805 392.4658792167902 459975.7167519182 823.08425994217396
leaf_count=342838 52927 513349 139894 198471 1273085 114634 457911 2354 224581 119202 142583 2131 92178 4769 1152 8206 822 1003 23420 1004 1889 1073 2040 201 5139 462 3756 1584 1972311 3325
internal_value=0.000828159 0.0542863 0.0777014 0.0974342 0.110992 0.120989 0.140116 -0.103117 0.157355 0.00920647 0.0290861 -0.104045 0.0910904 -0.0341858 0.0967481 0.180036 -0.104702 -0.105111 -0.105267 -0.0632687 0.0871611 -0.000738622 0.00535864 0.201805 -0.0227612 -0.105862 0.0137144 0.0320955 -0.105879 -0.0897084
internal_weight=1.4284e+06 943276 822188 741663 695293 664380 567309 485121 419726 97070.9 66571.9 80524.7 147583 30499.1 4793.35 2584.92 121088 480327 480049 6901.6 1270.18 2208.43 741.263 528.918 1919.38 46369.8 1601.16 1395.47 473147 13171.4
internal_count=5708294 3632250 3112739 2767770 2568837 2428943 2047755 2076044 1497666 381188 257217 344969 550089 123971 17924 9358 519511 2058120 2057117 28554 5134 8566 3044 2090 7493 198933 6162 5340 2028563 56252
is_linear=0
shrinkage=0.1


Tree=8
num_leaves=31
num_cat=0
split_feature=14 22 36 1 25 14 22 22 36 24 10 14 22 2 0 14 1 10 21 36 10 36 14 17 22 2 1 10 0 17
split_gain=3.11399e+06 140580 10506.6 3113.08 1153.04 1995.52 993.905 944.207 710.561 698.527 1600.33 663.078 2480.79 854.743 885.796 443.333 429.639 340.593 298.574 356.12 293.151 272.444 252.263 235.749 226.933 202.025 195.908 183.451 147.416 135.358
threshold=0.34563723206520086 0.26566453278064733 1.0132414400577547 0.42560358345508581 1.0000000180025095e-35 -0.55836305022239674 0.10587082803249361 0.49647758901119238 1.0132414400577547 1.0000000180025095e-35 2.4342281818389897 -0.063134845346212373 0.10587082803249361 -0.5709736943244933 -0.49574178457260126 1.2484861016273501 0.16910189390182498 1.5333206057548525 -2.3702688217163081 1.0000000180025095e-35 2.8051902055740361 -0.82297721505165089 1.0588897466659548 4.8246474266052255 -0.028808733448386189 -0.54571759700775135 0.99193331599235546 1.1623585820198061 1.234152138233185 1.0000000180025095e-35
decision_type=2 2 2 2 2 2 2 2 2 2 2 2 2 2 2 2 2 2 2 2 2 2 2 2 2 2 2 2 2 2
left_child=2 6 4 8 11 -6 -2 20 9 -3 -11 18 13 -13 24 16 -8 -14 19 -1 -5 -17 -22 25 -15 28 -19 -16 -9 -21
right_child=1 3 -4 7 5 -7 15 23 -10 10 -12 12 17 14 27 21 -18 26 -20 29 22 -23 -24 -25 -26 -27 -28 -29 -30 -31
leaf_value=-0.10279075625320831 0.21757878479121129 -0.10189236648743026 0.21896567227602304 0.020505846439353839 -0.10713058044478274 0.23822010513614111 -0.051173235151002174 0.094494902670048411 0.22362112456082497 -0.1051752939384719 0.14694404254203344 0.18439084529230193 -0.10619759392996618 0.20985469455076089 -0.091872036231319981 -0.10658355602408232 0.13857178376889487 -0.06930389934070999 -0.10611221026295328 -0.10808188652063942 0.05844859525893939 0.18969388990758418 0.2081636783315029 -0.10535688278816249 -0.099749514271902193 -0.086199334025484964 0.065638083739772896 0.047925358988085483 -0.0051757209099667374 0.20553296999175674
leaf_weight=123.72442004084587 463547.91429743171 13607.162051320076 997.55249419808388 179.06683807075024 450.85934063792229 266.04446697235107 219.25945465266705 256.78131680190563 70.047354608774185 744.29800248146057 380.46043860912323 364.41734100878239 6368.2224217653275 191.82516483962536 471.06837618350983 32.514274775981903 261.84458804130554 273.75276605784893 934176.94367820024 16.565068975090981 154.82600718736649 683.13446512818336 412.10558173060417 229.72713573276997 27.007927402853966 170.75148499011993 177.245101749897 117.22894422709942 351.54764640331268 81.338354915380478
leaf_count=527 1595273 57821 3442 690 1910 972 868 987 244 3178 1480 1353 27166 671 1875 139 967 1117 3998518 69 585 2419 1470 974 108 666 679 467 1371 288
internal_value=0.000133179 0.207143 -0.1054 -0.079191 -0.105743 0.0210298 0.217344 0.0467457 -0.0941211 -0.0956319 -0.0198935 -0.105839 -0.0771554 0.057272 -0.000121898 0.126329 0.052097 -0.10025 -0.106085 0.00996988 0.132047 0.176233 0.167277 -0.0163331 0.171644 0.00991727 -0.0162708 -0.0640149 0.0368962 0.15247
internal_weight=1.42541e+06 481301 944104 16556.8 943106 716.904 464745 1754.81 14802 14731.9 1124.76 942389 7990.77 1171.55 807.13 1196.75 481.104 6819.22 934399 221.628 745.998 715.649 566.932 1008.81 218.833 779.08 450.998 588.297 608.329 97.9034
internal_count=5708294 1669132 4039162 69466 4035720 2882 1599666 6743 62723 62479 4658 4032838 33436 4474 3121 4393 1835 28962 3999402 884 2745 2558 2055 3998 779 3024 1796 2342 2358 357
is_linear=0
shrinkage=0.1


Tree=9
num_leaves=31
num_cat=0
split_feature=14 24 21 1 6 6 16 17 4 0 16 3 3 3 21 0 16 16 4 1 0 3 16 3 14 1 17 16 16 16
split_gain=405858 31978.6 27298 8355.26 6525.5 4640.93 3413.29 4458.97 3337.14 2611.37 2217.95 2332.85 2169.39 2108.17 2040.47 1976.27 1777.8 3789.8 1657.46 1626.27 2386.28 1501.67 1287.85 1195.52 1179.43 1128.26 1095.72 959.712 3658.64 942.258
threshold=-0.64354220032691944 1.0000000180025095e-35 -2.3393740653991695 2.636831641197205 2.2842773199081425 1.6943949460983279 0.070127189159393324 1.0000000180025095e-35 -0.13870492950081822 1.9022811055183413 -0.33847242593765253 0.32683746516704565 0.32683746516704565 0.32683746516704565 -2.3393740653991695 -0.021026720292866227 1.0423479080200198 1.0156555175781252 -0.13870492950081822 -0.22654527425765988 2.1554212570190434 0.32683746516704565 2.5489306449890141 0.32683746516704565 -0.40263734757900232 0.42560358345508581 -0.62956562638282765 2.5376377105712895 2.4996523857116704 2.9133851528167729
decision_type=2 2 2 2 2 2 2 2 2 2 2 2 2 2 2 2 2 2 2 2 2 2 2 2 2 2 2 2 2 2
left_child=1 6 4 10 8 23 7 9 12 14 26 -12 16 18 15 25 17 -2 -8 20 -11 -17 -15 -5 -19 -1 -3 28 -18 -24
right_child=2 3 -4 5 -6 -7 13 -9 -10 19 11 -13 -14 22 -16 21 27 24 -20 -21 -22 -23 29 -25 -26 -27 -28 -29 -30 -31
leaf_value=0.33079223934248747 0.0011997713527932613 0.05170382735689269 -0.082548061969335548 0.014293459315118466 0.3948984291496237 0.36303880701006486 0.086993072261586063 1.0633888981970339 0.23406966621769146 0.75806069608538285 0.1412253218969852 0.26773203401035534 0.24024587681306253 0.28064441264473006 -0.086660923642002868 0.2854266385538749 0.039955772548130687 0.50739909781914594 0.26291734767318103 0.24985595666598878 0.29546055457983472 0.35405554435144099 0.75668000779911493 0.19327701538686362 1.2305896581542104 0.48983996085350334 0.39961634825365505 -0.0025279947593349261 0.52568291108021048 0.033986236033468384
leaf_weight=1007.8995062559843 244.89781818538904 104.60683695599437 180903.20397766493 6437.6375686638057 586.98655835911632 430.90121154859662 1514.7725257687271 77.099771734327078 943.31616455316544 313.37396404519677 5428.7233936153352 1992.7469960339367 507.12799755856395 416.94269164651632 137.34968719631433 26872.668965011835 3562.473107881844 113.15525989606977 828.4250221401453 192.16395771875978 173.10556248575449 3617.5114354193211 110.64399134740233 396.15615686774254 28.16380775347352 800.07630754262209 672.35327659547329 6520.9428625553846 162.13001142069697 21.555796779692173
leaf_count=14616 5774 559 4838393 141725 10479 7660 28025 975 13707 3513 88419 25353 7887 5408 1984 193370 84220 2658 7565 1839 1063 39423 950 6836 637 10194 8297 153126 3304 335
internal_value=-0.00620872 0.243147 -0.0726101 0.122828 0.0692932 0.0447394 0.294708 0.303788 0.0534744 0.302019 0.192023 0.175194 0.0381804 0.19052 0.297957 0.299593 0.028542 0.239158 0.14919 0.49616 0.593452 0.293569 0.366876 0.0246692 0.651525 0.401175 0.352775 0.0206027 0.0610992 0.638841
internal_weight=245119 51546.7 193572 15463.1 12669.2 7264.69 36083.6 33191.2 12082.2 33114.1 8198.43 7421.47 11138.9 2892.34 32435.5 32298.2 10631.8 386.217 2343.2 678.643 486.48 30490.2 549.142 6833.79 141.319 1807.98 776.96 10245.5 3724.6 132.2
internal_count=5708294 588109 5120185 278849 281792 156221 309260 266977 271313 266002 122628 113772 257606 42283 259587 257603 249719 9069 35590 6415 4576 232793 6693 148561 3295 24810 8856 240650 87524 1285
is_linear=0
shrinkage=0.1


Tree=10
num_leaves=31
num_cat=0
split_feature=21 4 5 4 20 24 12 0 20 4 12 21 20 24 20 5 0 12 20 20 1 15 20 24 20 11 17 1 18 5
split_gain=1.38571e+06 47609.3 15150.7 5356.93 3094.85 1889.62 1865.3 1771.8 1439.15 1237.83 1016.77 973.479 759.682 703.403 1158.61 702.294 677.135 664.678 525.346 494.092 412.68 396.679 363.796 343.476 303.009 262.203 250.717 202.018 196.287 192.356
threshold=-2.3393740653991695 0.18658614158630374 1.814332187175751 -0.13870492950081822 0.0039934553205966958 1.0000000180025095e-35 -0.16209043562412259 0.35110162198543554 0.0010926885297521951 0.063369825482368483 -0.05078610219061374 -2.3702688217163081 0.0039934553205966958 1.0000000180025095e-35 -0.0012843806762248275 0.26298247277736669 0.52207949757576 -0.10643826797604559 -0.0014560711570084093 0.00064819914405234169 1.857005298137665 -0.40483121573925013 -0.0011707342928275464 1.0000000180025095e-35 -0.00034737534588202829 -0.29451921582221979 -0.39713267982006067 0.95045727491378795 0.090114817023277297 0.26298247277736669
decision_type=2 2 2 2 2 2 2 2 2 2 2 2 2 2 2 2 2 2 2 2 2 2 2 2 2 2 2 2 2 2
left_child=1 2 3 6 9 24 7 8 11 16 13 -1 18 14 -8 22 19 -18 -9 -5 -14 27 -11 -12 -3 29 -10 -6 -15 -26
right_child=-2 5 -4 4 21 -7 10 12 26 15 23 -13 20 28 -16 -17 17 -19 -20 -21 -22 -23 -24 -25 25 -27 -28 -29 -30 -31
leaf_value=-0.083330462407639236 -0.088413998588725284 -0.084324406213338907 -0.081154850322685157 0.19408890932274409 0.072190599477301207 0.29795513871088319 -0.038124580597241609 0.17346976255937696 0.1335221104126989 -0.0027128425926309348 -0.052726982543717361 0.22727600311741708 0.2096867523569558 0.20581219917968863 0.18614922869086048 0.0022276973344313071 0.21803421526813271 0.14949608826560679 0.24383624296600406 0.10910768567564932 0.10096592092625917 0.16955959128021242 0.16348858919062884 0.17114873708890957 0.10772041582330186 -0.080060019031440083 0.19356923665729234 -0.022330661594906327 0.23787661998463691 -0.071884692694580546
leaf_weight=101.95046492666006 520734.87635690719 4951.2762991935015 1580.5220508426428 1702.6460532173514 334.21253759413958 138.16862915456295 241.84309642016888 1069.0573977231979 2575.9642452448606 136.43919666856527 207.84651958942413 9824.0748487561941 1043.992778018117 3481.5924343913794 4845.4089277088642 313.6771580055356 16991.609065182507 1543.5020672082901 140715.7136727199 1143.7594415396452 524.55019894242287 178.80730582773685 3792.1278109624982 102.24062121659517 214.14666701108217 258.44514729082584 952.44149124622345 699.10019471496344 4227.2212135344744 82.643161505460739
leaf_count=874 4840333 54306 16841 7811 2267 1099 1237 4718 11515 794 1428 39702 4418 14805 20682 2378 75569 7780 540313 6036 2397 870 17984 494 1679 2580 4117 5088 17430 838
internal_value=-0.00187059 0.219069 0.22722 0.229697 0.188177 -0.067304 0.236254 0.239283 0.204586 0.195563 0.200013 0.224086 0.24254 0.204349 0.175487 0.146219 0.205353 0.212327 0.243306 0.159941 0.173328 0.0320382 0.157716 0.0210884 -0.076469 -0.00641878 0.149731 0.0082411 0.223395 0.0577081
internal_weight=724710 203975 198330 196750 26835.9 5644.68 169914 156808 13454.4 25623.8 13106.2 9926.03 143353 12796.1 5087.25 4242.24 21381.5 18535.1 141785 2846.41 1568.54 1212.12 3928.57 310.087 5506.51 555.235 3528.41 1033.31 7708.81 296.79
internal_count=5708383 868050 807548 790707 126577 60502 664130 608054 56208 118352 56076 40576 551846 54154 21919 21156 97196 83349 545031 13847 6815 8225 18778 1922 59403 5097 15632 7355 32235 2517
is_linear=0
shrinkage=0.1


Tree=11
num_leaves=31
num_cat=0
split_feature=17 33 2 14 6 12 11 0 0 11 1 3 6 13 2 33 0 10 10 10 1 1 4 16 16 18 6 10 17 14
split_gain=866525 147079 116504 94347 89723.6 98296.3 35364.5 12139 11279.6 10121.2 10007 7579.2 9961.72 6896.07 6505.87 6281.24 6231.19 5667.02 4323.73 4239.71 2557.08 2547.13 2195.47 1642.6 4063.74 1613.28 1172.22 833.578 802.758 2102.41
threshold=-0.62863484025001515 1.0000000180025095e-35 0.5532396435737611 1.8451799154281618 0.23337482661008838 0.17182256281375888 2.520525455474854 0.7473680078983308 0.067479480057954802 -0.084888227283954606 -0.16538242250680921 4.3203709125518808 -0.085765823721885667 1.2723056077957156 0.67941272258758556 1.0000000180025095e-35 0.69506892561912548 -0.1625055596232414 3.8650814294815068 0.049472710117697723 2.1091109514236455 -0.31293778121471399 2.4905862808227544 -0.31896641850471491 -0.32101967930793757 1.5305689573287966 2.5459998846054082 1.5863151550292971 -0.59870806336402882 -0.84027698636054982
decision_type=2 2 2 2 2 2 2 2 2 2 2 2 2 2 2 2 2 2 2 2 2 2 2 2 2 2 2 2 2 2
left_child=1 2 4 9 5 6 10 11 25 13 16 12 14 15 22 18 -1 21 28 -16 -17 -8 -4 24 -11 -5 -20 -15 29 -2
right_child=3 -3 7 8 -6 -7 17 -9 -10 23 -12 -13 -14 27 19 20 -18 -19 26 -21 -22 -23 -24 -25 -26 -27 -28 -29 -30 -31
leaf_value=0.0067215982485007769 -0.10257630501541659 0.17987419643041852 0.051010944898264625 -0.048730197507463574 0.17981535587835609 0.17986737238396724 0.10236111339971816 -0.068603377216350722 -0.073373879854320354 -0.089511295097287252 -0.071527907886851982 0.17987253886759924 0.17990596815719595 0.16715124634913164 0.12382777288626452 0.18080395919900349 -0.022933389505732829 -0.053679317925999726 -0.0028643146692806814 -0.085903330811721468 -0.09681791270571237 0.04733613567804254 0.10528679453606755 -0.013469486902697636 0.22251610667911348 0.18030016454712455 0.19026213299785036 -0.029827899994290748 -0.10097983638169623 -0.041347230874828757
leaf_weight=141988.65760469437 17443.779998347163 104546.95180216432 21634.932744130492 314.32519482076168 36693.741855829954 34674.022917211056 9020.308884575963 3220.0801092386246 2083.2506200522184 707.14004077017307 27245.274056956172 23678.612343877554 22614.260342687368 1073.8040427565575 89567.386147424579 1125.1682308614254 141435.59621945024 5374.8744668066502 693.17377199232578 974.33632196485996 470.50434865057468 124876.49149383605 11369.083980053663 7553.9990005046129 1018.6370172053576 14280.934900447726 574.98444420099258 268.56754848361015 538184.91863749921 8264.9773375689983
leaf_count=572969 81523 338686 78603 1292 118885 112328 33492 14348 8951 2852 122875 76708 73264 3598 307839 3655 583245 22349 2935 4167 2164 463797 39261 31043 3560 46624 1900 1091 2516882 37497
internal_value=0.00128561 0.0692973 0.0526484 -0.0901794 0.0290476 0.0176319 0.0051295 0.123741 0.144298 -0.0969527 -0.0136415 0.127388 0.118885 -0.0986448 0.107716 -0.099181 -0.00807696 0.0470015 -0.0997404 0.121571 0.0989436 0.051043 0.0697077 0.00663999 0.0946624 0.175368 0.0846994 0.127742 -0.100155 -0.0828921
internal_weight=1.39297e+06 798915 694368 594058 521309 484615 449941 173059 16678.5 577380 310670 169839 146160 568100 123546 566758 283424 139272 565162 90541.7 1595.67 133897 33004 9279.78 1725.78 14595.3 1268.16 1342.37 563894 25708.8
internal_count=5708383 2962816 2624130 2745567 2029940 1911055 1798727 594190 56867 2688700 1279089 579842 503134 2651245 429870 2646556 1156214 519638 2640737 312006 5819 497289 117864 37455 6412 47916 4835 4689 2635902 119020
is_linear=0
shrinkage=0.1


Tree=12
num_leaves=31
num_cat=0
split_feature=17 7 0 3 2 14 11 4 10 17 4 0 13 6 2 5 20 16 17 24 11 10 14 16 10 0 2 30 1 0
split_gain=649465 281337 235228 155069 97335.5 44865.3 44669.2 32667.7 16610.1 9930.54 7256.87 9270.16 6791.62 6085.44 4119.43 3487.13 3226.11 2622.05 2174.47 2102.48 1598.39 1397.71 1246.2 1137.75 1121.74 3476.07 1048.79 941.859 935.077 549.381
threshold=-0.25793522596359247 0.4111399650573731 -1.1394232511520384 0.32683746516704565 0.62584879994392406 -0.80875086784362782 -0.11483551189303397 2.4243146181106572 2.4342281818389897 -0.41563592851161951 2.4905862808227544 -0.42332762479782099 1.3801914453506472 0.97566452622413646 0.84380367398262035 -0.20242243260145185 -0.0014572479994967578 1.208662271499634 -0.57641112804412831 1.0000000180025095e-35 0.094795476645231261 -0.21550012379884717 -0.62022209167480458 0.19948284327983859 0.26145096868276602 0.65081581473350536 0.77600809931755077 1.0000000180025095e-35 5.4292979240417489 1.0732317566871645
decision_type=2 2 2 2 2 2 2 2 2 2 2 2 2 2 2 2 2 2 2 2 2 2 2 2 2 2 2 2 2 2
left_child=1 2 28 4 5 -4 12 9 20 -7 11 14 22 -14 -6 -9 -13 -10 -8 29 24 26 -3 -20 -2 27 -12 -26 -1 -19
right_child=8 6 3 -5 10 7 18 15 17 -11 21 16 13 -15 -16 -17 -18 19 23 -21 -22 -23 -24 -25 25 -27 -28 -29 -30 -31
leaf_value=-0.10214985076279087 -0.1017130828234622 -0.10214574538598956 -0.099448906608647566 -0.10215638644351997 0.019740227535439768 0.12495243303336012 0.16855608424125912 0.074167981123542545 -0.06410491965879081 0.17401309613676963 -0.014837673109255645 0.099382684579228234 0.1946431581285413 -0.10232080572689933 -0.058802631757814944 0.15437051355560688 0.034422192236417244 0.02320565223111222 -0.077859850569682573 0.00017238164863141484 0.12463018769403318 0.11713306195987766 -0.0076275070982885279 0.12099882778580735 -0.10045975196974283 0.16596993982006059 -0.056339215717981263 0.010581076596921819 0.16629969409876338 0.17706854667988783
leaf_weight=72439.609877616167 431859.3145942688 126884.83960884809 9816.1741883456707 40942.374998539686 12138.701581180096 393320.02808736265 6760.3564243912697 151968.37003898621 970.72058975696564 46092.73734998703 8986.9200474917889 10905.993034735322 1488.9761729240417 1286.0816212594509 14842.956485256553 5621.6922337561846 25568.480530172586 254.37959633767605 585.38820245862007 1081.0894441604614 313.94120638072491 556.24435564875603 1410.4462201744318 565.78815534710884 5007.2200473845005 616.7383164614439 18885.020106062293 901.38122133910656 129.98719921708107 2645.1835837513208
leaf_count=341278 2028326 599223 47979 192859 48224 1328504 22500 544276 4032 150164 37662 39723 4965 6032 61070 19341 94588 956 2256 4108 1081 1960 5435 1932 22467 2264 82109 3826 424 8819
internal_value=0.0010406 0.0476421 0.0701389 0.0869957 0.0980795 0.112603 -0.0838303 0.11609 -0.0988741 0.130099 0.00216194 0.0209721 -0.0977588 0.0570172 -0.0234672 0.077029 0.0538456 0.0832578 0.146922 0.119194 -0.10093 -0.0398252 -0.101107 0.0198766 -0.101091 -0.0599396 -0.0429576 -0.08352 -0.101669 0.16357
internal_weight=1.39485e+06 951197 812215 739646 698703 606819 138982 597003 443650 439413 91884.3 63456.1 131070 2775.06 26981.7 157590 36474.5 4951.37 7911.53 3980.65 438699 28428.2 128295 1151.18 438385 6525.34 27871.9 5908.6 72569.6 2899.56
internal_count=5708383 3632504 2990161 2648459 2455600 2090264 642343 2042285 2075879 1478668 365336 243605 615655 10997 109294 563617 134311 17915 26688 13883 2057964 121731 604658 4188 2056883 28557 119771 26293 341702 9775
is_linear=0
shrinkage=0.1


Tree=13
num_leaves=31
num_cat=0
split_feature=17 36 17 15 21 10 16 36 15 24 10 16 10 1 20 0 17 20 0 16 17 16 36 16 6 15 36 16 20 0
split_gain=1.94891e+06 524214 22008.1 11595.9 3460.41 3000.55 2880.29 2460.01 1419.59 1185.02 573.038 430.207 2087.08 2630.43 663.32 442.464 1079.7 394.589 390.852 356.127 210.029 247.484 215.22 202.713 179.421 168.549 217.728 160.332 129.597 116.735
threshold=0.33067114651203161 1.0000000180025095e-35 1.4193588495254519 -0.41226375102996821 -2.3393740653991695 2.4342281818389897 1.0423479080200198 1.0132414400577547 2.0379966497421269 1.0000000180025095e-35 0.31444554030895239 0.020848841406404976 0.31444554030895239 0.66643229126930248 1.0000000180025095e-35 -0.53672620654106129 -0.30209198594093317 -0.00099954393226653316 0.067479480057954802 0.85755407810211193 1.1278057098388674 2.5022189617156987 1.0132414400577547 1.0577473640441897 -0.14647091925144193 -0.43456135690212244 -0.82297721505165089 1.055694103240967 -0.00094230059767141927 -0.093440886586904512
decision_type=2 2 2 2 2 2 2 2 2 2 2 2 2 2 2 2 2 2 2 2 2 2 2 2 2 2 2 2 2 2
left_child=3 5 4 -1 8 25 -7 11 -3 -8 19 -5 15 17 23 16 28 -14 -19 -4 29 22 -22 -15 -11 26 -2 -18 -13 -6
right_child=1 2 10 7 20 6 9 -9 -10 24 -12 12 13 14 -16 -17 27 18 -20 -21 21 -23 -24 -25 -26 -27 -28 -29 -30 -31
leaf_value=0.20336374413382693 -0.10192055760451112 -0.097679266487005811 0.15819524809591923 -0.10253102910226253 0.17999950710558774 0.1888064941640881 -0.096364742870461026 0.18347691957196996 0.18416962433200246 0.15247362719645838 0.14030904523952567 -0.097956087884473936 -0.097041039907579327 0.099513291327970654 0.19371372817350682 -0.10175968643783773 0.18648189052559302 0.12891779852805779 -0.051305089293236732 -0.099425281647020219 -0.051614316241125537 0.19717363374584876 0.1846244666724266 0.0064104384032125416 0.027653706619911601 -0.10250114605063945 0.17148705330112907 -0.032285413536156764 0.23720642904971354 0.12279556917733017
leaf_weight=1246.5286942571402 67.062340781092644 634.07432062923908 54.648997008800507 756020.97439396381 492685.10302087665 625.41853235661983 1772.5491280853748 302.00395807623863 248.83048489689827 138.17279227077961 107.39523379504681 750.18522238731384 2514.2406216710806 377.47061015665531 404.89571763575077 36583.77827270329 200.89589926600456 152.72412201762199 567.41440141201019 2962.6134268790483 124.65567444264889 144.2169139534235 55.837922275066376 614.6870322227478 691.47372975945473 76379.472522228956 51.490453839302063 40.205469474196434 11.716946706175802 356.99531956017017
leaf_count=4258 305 2863 188 3524051 1596467 2095 8109 983 819 496 413 3518 11365 1493 1540 169349 684 589 2327 13727 499 506 182 2369 2613 354954 171 177 53 1220
internal_value=-0.000337515 0.139721 0.177879 -0.101399 0.179551 -0.0983313 -0.0038848 -0.101874 -0.0182453 -0.0501967 -0.0866799 -0.101982 -0.0921584 -0.0288181 0.0858504 -0.0999632 -0.034437 -0.0783479 -0.0130841 -0.0947592 0.179905 0.0995065 0.0214691 0.0418318 0.0484417 -0.102316 0.0168272 0.150001 -0.0928018 0.179958
internal_weight=1.37689e+06 577100 497374 799788 494250 79725.6 3227.61 798541 882.905 2602.2 3124.66 798239 42218.2 4631.43 1397.05 37586.8 1003 3234.38 720.139 3017.26 493367 324.711 180.494 992.158 829.647 76498 118.553 241.101 761.902 493042
internal_count=5708383 1985627 1616884 3722756 1602556 368743 13313 3718498 3682 11218 14328 3717515 193464 19683 5402 173781 4432 14281 2916 13915 1598874 1187 681 3862 3109 355430 476 861 3571 1597687
is_linear=0
shrinkage=0.1


Tree=14
num_leaves=31
num_cat=0
split_feature=21 16 1 0 3 20 4 1 6 4 0 3 0 13 23 1 1 4 1 20 1 6 4 0 13 16 16 2 2 2
split_gain=305674 23681.5 9216.84 4187.81 3466.49 2901.41 4336.86 3168.57 2859.3 2426.22 2213.54 2121.18 1554.14 1490.11 1320.98 1036.04 982.332 1071.89 942.195 823.546 748.774 687.633 679.034 669.931 652.332 607.872 2359.14 589.489 588.502 545.805
threshold=-2.3393740653991695 1.055694103240967 4.1506121158599862 1.1094388365745547 0.32683746516704565 0.0016907484387047591 -0.13870492950081822 -0.10383730754256247 2.2842773199081425 -0.13870492950081822 0.99277159571647655 0.32683746516704565 1.5901884436607363 -0.18415351957082746 1.0000000180025095e-35 3.0993757247924809 1.1461783647537234 -0.13870492950081822 -1.0788113474845884 -0.0014524444122798739 1.857005298137665 1.2120591402053835 -0.092704173177480684 0.35110162198543554 -0.18415351957082746 2.5376377105712895 2.4996523857116704 -0.58011424541473378 -0.58011424541473378 -0.57986804842948902
decision_type=2 2 2 2 2 2 2 2 2 2 2 2 2 2 2 2 2 2 2 2 2 2 2 2 2 2 2 2 2 2
left_child=1 2 5 -4 8 6 7 12 9 24 16 13 18 -9 -14 19 23 28 -1 -10 -12 -5 -11 27 25 26 -3 -7 -18 -19
right_child=-2 4 3 21 -6 10 -8 11 15 22 20 -13 14 -15 -16 -17 17 29 -20 -21 -22 -23 -24 -25 -26 -27 -28 -29 -30 -31
leaf_value=0.37142503093960377 -0.082296117927363091 0.028827850876240398 0.2263681991535044 -0.00045795568727935351 0.20083055294491242 0.23446080948770667 0.22030978276805491 0.088912502970069696 1.4191362506811844 0.11552094930230204 0.15620864251474861 0.20896470784903493 0.33670536840662346 0.25097158785999563 -0.006435572275176913 0.3277598280165987 0.33667778294567174 0.25518313637511003 0.17352287470147221 0.1109256554221022 0.28195779560717638 0.21112291853799561 0.26903055041442292 0.20747960417005673 0.24906786675489259 -0.00024804396583909597 0.31174719019161867 0.37283017397638329 0.47194844010549208 0.40943483050485319
leaf_weight=256.21821884065866 163885.8788975887 6101.1183789968491 1167.84202067554 3494.3028894141316 1626.4144159592688 585.10420710593462 27102.165104970336 7904.0583186261356 4.8539255857467642 1414.984377425164 2045.1587381362915 2289.7842187769711 1290.1807032562792 611.2525047659874 122.87387211620808 434.38045301288366 639.80990486592054 1318.7865775153041 3938.7389094270766 558.14815768972039 616.19141244888306 160.66718546673656 361.83673591911793 1477.5976638421416 125.83561109006405 6917.2201263085008 309.69353496655822 649.85080439597368 646.70071447640657 277.69430392980576
leaf_count=1860 4840333 132625 5770 80897 17996 3113 140993 129726 74 17362 21631 26700 13213 3927 981 4790 4619 5559 36382 9094 6191 2825 2381 13145 2284 162948 4090 6186 8677 2011
internal_value=-0.00596614 0.162059 0.193737 0.0615165 0.0616465 0.206054 0.195742 0.155175 0.0476972 0.0369556 0.260401 0.123521 0.216163 0.100546 0.306867 0.211728 0.296109 0.336751 0.18561 0.122204 0.185324 0.00884283 0.146782 0.252913 0.0224511 0.0203115 0.0424951 0.307273 0.404675 0.282014
internal_weight=238335 74449.5 56595 4822.81 17854.5 51772.2 43515.3 16413.1 16228.1 15230.7 8256.89 10805.1 5608.01 8515.31 1413.05 997.383 5595.54 2882.99 4194.96 563.002 2661.35 3654.97 1776.82 2712.55 13453.9 13328 6410.81 1234.96 1286.51 1596.48
internal_count=5708383 868050 514406 89492 353644 424914 353782 212789 335648 321690 71132 160353 52436 133653 14194 13958 43310 20866 38242 9168 27822 83722 19743 22444 301947 299663 136715 9299 13296 7570
is_linear=0
shrinkage=0.1


Tree=15
num_leaves=31
num_cat=0
split_feature=21 11 5 11 2 24 16 1 2 23 15 6 2 2 5 2 1 15 2 1 1 2 2 6 15 23 1 16 2 23
split_gain=1.04824e+06 30210 9753.87 3736.08 1835.37 1334.14 1281.52 1585.7 829.284 1681.81 815.204 760.589 715.977 609.848 426.837 414.568 356.807 285.928 285.648 276.914 276.403 359.492 234.621 227.464 187.169 158.731 141.709 135.328 125.359 124.887
threshold=-2.3393740653991695 -0.32446649670600886 1.814332187175751 -0.38436105847358698 -0.58011424541473378 1.0000000180025095e-35 1.055694103240967 3.5106958150863652 -0.56327107548713673 1.0000000180025095e-35 -0.40483121573925013 2.5459998846054082 -0.57927936315536488 -0.57986804842948902 0.26298247277736669 -0.57965090870857228 1.1461783647537234 -0.40483121573925013 -0.57686015963554371 3.6372264623641972 0.30327789485454565 -0.55724981427192677 0.42127317190170294 1.6943949460983279 -0.40483121573925013 1.0000000180025095e-35 0.95045727491378795 -0.18961076438426969 -0.18490687012672422 1.0000000180025095e-35
decision_type=2 2 2 2 2 2 2 2 2 2 2 2 2 2 2 2 2 2 2 2 2 2 2 2 2 2 2 2 2 2
left_child=1 2 3 6 17 18 7 8 13 -10 12 22 16 -1 -14 -9 -6 26 24 28 21 -12 -8 -17 -3 -4 -5 -7 -13 -20
right_child=-2 5 25 4 10 27 11 15 9 -11 20 19 14 -15 -16 23 -18 -19 29 -21 -22 -23 -24 -25 -26 -27 -28 -29 -30 -31
leaf_value=0.14182745855495299 -0.087434746251634901 -0.035203344869847351 -0.082604885609866535 0.059595819206787415 0.12049478816968251 0.2960354331462256 0.19635219788289623 0.10607418580650002 0.084227431141313994 0.21506334674561059 0.1601593894309149 0.17056183471513886 0.15371452125866855 0.1760529456417611 0.079732768381315378 0.20066777349792539 0.048525191681749784 0.1392986533985579 -0.08367489860515373 0.087640418170633172 0.18194313314730354 0.058185792161617289 0.05908510080369006 0.14696792268836159 0.11358635382421267 0.35173667116359475 -0.019003574466256279 0.11723570537519762 -0.081044510517877213 0.36743726119084935
leaf_weight=5756.9858611822128 470256.45253270864 407.13235693797469 1425.7919009700418 346.7028493732214 1870.2788243889809 88.293509222567081 93813.971340626478 486.28400202095509 2943.7915614545345 1474.6242913454771 4168.9832238852978 1015.199241489172 11555.984024614096 54418.458197377622 836.29054848849773 28340.911116026342 1090.537006534636 196.44073754549026 4444.3064305521548 811.66968008875847 9020.0838292092085 376.97163120657206 124.68391501158476 811.380311191082 106.70316060632467 8.4638756811618787 677.85709103941917 81.315260007977486 20.196139879524708 6.1453820019960395
leaf_count=22822 4840845 4102 16797 2225 8555 559 321718 1988 12387 5129 16611 3548 45916 193651 4982 96785 5420 841 54411 2907 35079 1791 561 2853 709 50 5047 525 107 61
internal_value=-0.00228106 0.174337 0.179893 0.181587 0.148878 -0.0654786 0.186775 0.178495 0.169708 0.127893 0.153949 0.19492 0.138166 0.172779 0.148722 0.197646 0.0939867 0.0287832 -0.0749012 0.131372 0.17181 0.151703 0.19617 0.199173 -0.00430565 -0.0800417 0.00759383 0.210314 0.165654 -0.083052
internal_weight=696983 226726 221593 220158 30140.1 5133.9 190018 94232.4 64593.9 4418.42 28919.1 95785.7 15353.1 60175.4 12392.3 29638.6 2960.82 1221 4964.29 1847.07 13566 4545.95 93938.7 29152.3 513.836 1434.26 1024.56 169.609 1035.4 4450.45
internal_count=5708982 868137 807770 790923 126467 60367 664456 335615 233989 17516 118354 328841 64873 216473 50898 101626 13975 8113 59283 6562 53481 18402 322279 99638 4811 16847 7272 1084 3655 54472
is_linear=0
shrinkage=0.1


Tree=16
num_leaves=31
num_cat=0
split_feature=19 33 20 14 3 10 11 11 1 0 0 3 10 20 13 33 4 0 10 10 11 4 1 1 13 4 18 0 13 20
split_gain=709178 108311 86895.6 77824.2 60557.9 66080.3 25368.5 9149.24 8950.65 8612.73 8373.44 7368.3 9049.78 6461.78 5683.88 5000.48 4568.35 4451.87 3926.14 3638.46 3136.68 2356.79 2239.49 1930.13 1767.19 1178.76 1137.67 1009.99 717.505 688.01
threshold=-0.62784507870674122 1.0000000180025095e-35 -0.0014556140522472558 1.8451799154281618 4.3203709125518808 3.1761521100997929 2.4905781745910649 -0.054940944537520402 -0.16538242250680921 0.7473680078983308 0.067479480057954802 4.3203709125518808 3.1231576204299931 -0.0014561229036189614 1.2723056077957156 1.0000000180025095e-35 -0.32809102535247797 0.69506892561912548 -0.1625055596232414 3.1761521100997929 2.520525455474854 2.5227674245834355 -0.31293778121471399 2.3789919614791875 3.1063653230667119 2.5227674245834355 1.5305689573287966 0.81173616647720348 3.2681940793991093 -0.0014507083687931297
decision_type=2 2 2 2 2 2 2 2 2 2 2 2 2 2 2 2 2 2 2 2 2 2 2 2 2 2 2 2 2 2
left_child=1 2 9 7 5 6 8 14 17 11 26 12 13 20 15 19 24 -4 22 29 -1 -15 -8 -17 -7 -9 -5 -21 -14 -2
right_child=3 -3 4 10 -6 16 18 25 -10 -11 -12 -13 28 21 -16 23 -18 -19 -20 27 -22 -23 -24 -25 -26 -27 -28 -29 -30 -31
leaf_value=0.090497102196732029 -0.080773084727704211 0.15557949871282822 0.0063548896966892192 -0.041720673460888119 0.15556780344590371 0.15558726542611559 0.089850309102440573 -0.0024508818081942678 -0.06839591030620773 -0.062089237153228387 -0.069132069455906553 0.15557014658437984 0.15556959607416385 0.042316959065966997 0.10974408549537158 0.15706613230712368 -0.07004836674968519 -0.019444612649898541 -0.040430608375058019 0.15608557452425914 0.12849426352758084 0.091679852387649752 0.039953540980710092 -0.094358604508136129 -0.09755057254495092 0.13730180480413293 0.15532384014837539 -0.0053504609232000663 -0.099326383121958781 -0.097610142328496574
leaf_weight=65045.754557907581 25545.372600212693 105901.21731752157 135592.49886442721 299.06661969423294 33125.835847854614 33910.360672339797 9700.2850687205791 8087.1550254970789 25481.820257946849 3096.8095924705267 1950.0758935362101 25971.319262504578 24440.088854193687 31403.236498847604 1349.6736092865467 1082.1183806359768 939.01605086028576 131990.63482658565 5804.7105025500059 571.85986246168613 32620.804165929556 13976.877327427268 123725.80711778998 425.34608946740627 278.04479715228081 652.21067304909229 14476.864823445678 1202.3515083640814 110.93431036174297 485961.52437660843
leaf_count=219315 128536 339162 552294 1272 106089 108602 34919 33515 121994 14550 8931 83176 78272 118091 4677 3469 4161 556876 24843 1905 105267 48209 451501 2117 1258 2162 46494 5197 467 2501661
internal_value=0.00171498 0.0613517 0.0470392 -0.0867172 0.0249105 0.0156509 0.00493293 -0.093484 -0.0117642 0.103361 0.125631 0.106008 0.0983274 0.0887006 -0.095202 -0.0957393 0.147552 -0.00637122 0.0400786 -0.0962734 0.103188 0.0575205 0.0435811 0.0861241 0.153529 0.00797873 0.151336 0.0466832 0.154418 -0.0967693
internal_weight=1.34472e+06 803116 697215 541604 500549 467423 432296 524878 293065 196666 16726 193569 167598 143047 516138 514789 35127.4 267583 139231 513281 97666.6 45380.1 133426 1507.46 34188.4 8739.37 14775.9 1774.21 24551 511507
internal_count=5708982 2969046 2629884 2739936 1962537 1856448 1742427 2683239 1231164 667347 56697 652797 569621 490882 2647562 2642885 114021 1109170 511263 2637299 324582 166300 486420 5586 109860 35677 47766 7102 78739 2630197
is_linear=0
shrinkage=0.1


Tree=17
num_leaves=31
num_cat=0
split_feature=17 7 0 3 20 11 21 4 10 4 17 0 20 13 0 24 20 20 17 10 0 1 5 12 30 18 1 20 7 5
split_gain=536016 223061 182274 118258 68519.3 36818.8 34951.7 21673.1 14321.5 7262.73 7210.56 6523.27 6563.04 6178.41 2655.45 2007.43 1909.3 1773.22 1568.74 1547.1 3658.21 1109.82 1021.24 914.032 848.979 821.861 709.403 643.287 609.659 737.709
threshold=-0.25793522596359247 0.4111399650573731 -1.1394232511520384 0.32683746516704565 -0.0014557877439074216 -0.11483551189303397 -2.3393740653991695 2.4243146181106572 2.4342281818389897 2.5227674245834355 -0.40988187491893763 0.70311489701271068 -0.0014564284938387571 1.3801914453506472 0.71518394351005565 1.0000000180025095e-35 -0.001456328958738595 -0.0014573530061170457 -0.57641112804412831 0.26145096868276602 0.63023653626441967 0.42560358345508581 3.4173935651779179 1.0000000180025095e-35 1.0000000180025095e-35 -0.097658760845661149 5.4292979240417489 -0.0014584145392291246 0.71279260516166698 2.5382953882217412
decision_type=2 2 2 2 2 2 2 2 2 2 2 2 2 2 2 2 2 2 2 2 2 2 2 2 2 2 2 2 2 2
left_child=1 2 26 4 9 13 -6 10 19 11 -8 12 -4 23 -9 21 27 -13 -7 -2 24 -10 28 -3 -21 -20 -1 -11 29 -15
right_child=8 5 3 -5 6 18 7 14 15 16 -12 17 -14 22 -16 -17 -18 -19 25 20 -22 -23 -24 -25 -26 -27 -28 -29 -30 -31
leaf_value=-0.098655310822883521 -0.098186411001202512 -0.098414286480152088 -0.042371283325182342 -0.098667203510401091 -0.097844489425630676 0.14338038171331266 0.10787713782733233 0.063701840432466378 0.14258174532128301 0.0079163746640626108 0.14948325143312463 0.09328318040924341 0.040378490601436973 0.17059340891446573 0.10215636665590973 -0.024837913766026301 0.0020071254422471835 0.044511325242182584 -0.1000647757255244 -0.096729119235615627 0.13874326104067322 0.0022754483576488027 0.1670974834689897 0.035867990439078498 0.0090217191108213548 0.078139688597955892 0.13985854368474621 -0.054677389685674385 -0.012193808108183254 -0.095566359528570677
leaf_weight=65468.624298021197 391120.95406688005 116440.06618510932 19330.027204439044 37022.762639924884 8979.1009887456894 6979.2171672284603 392511.20886035264 134611.72846364975 2803.346506357193 1820.6454226225615 46598.973602771759 9585.3350654393435 19010.774376943707 445.13653790950775 20721.698587983847 1469.9066799134016 12524.094680055976 33535.244107857347 392.50905176997185 4570.2569887340069 896.43532903492451 705.67670270800591 623.30036289989948 509.11840346455574 910.37202599644661 759.70384472608566 124.9377963244915 16722.276737764478 1511.4941394329071 135.93721693754196
leaf_count=341599 2028260 602436 81661 193090 48201 22486 1280424 468509 9166 9011 149166 34001 70266 1432 69334 5821 49493 121290 1617 22426 3054 2851 2007 1971 3889 2595 400 74963 6865 698
internal_value=0.00138587 0.0424961 0.061679 0.0756066 0.0846185 -0.0803752 0.0979779 0.100936 -0.0952786 0.0129803 0.112292 0.0286693 -0.00134091 -0.094367 0.0688317 0.0732692 -0.0281578 0.0553529 0.125534 -0.0973898 -0.0485316 0.114366 0.0547403 -0.0978297 -0.0791631 0.0174331 -0.098201 -0.0485316 0.0212731 0.108328
internal_weight=1.34884e+06 946364 818567 752974 715951 127796 603423 594444 402477 112528 439110 81461.4 38340.8 119665 155333 4978.93 31067 43120.6 8131.43 397498 6377.06 3509.02 2715.87 116949 5480.63 1152.21 65593.6 18542.9 2092.57 581.074
internal_count=5708982 3633515 2991408 2649409 2456319 642107 2015634 1967433 2075467 440685 1429590 307218 151927 615409 537843 17838 133467 155291 26698 2057629 29369 12017 11002 604407 26315 4212 341999 83974 8995 2130
is_linear=0
shrinkage=0.1


Tree=18
num_leaves=31
num_cat=0
split_feature=14 18 36 15 1 18 24 10 18 36 30 0 14 0 10 1 25 14 14 22 14 1 21 30 4 0 36 17 18 6
split_gain=1.90971e+06 70875.2 6979.88 5838.61 2170.24 556.778 547.718 1019.12 544.189 462.016 443.433 610.628 336.952 1055.26 996.792 430.972 292.425 910.375 276.349 270.34 253.735 272.145 243.2 238.059 180.14 166.91 144.514 135.477 122.455 103.49
threshold=0.34563723206520086 1.5305689573287966 1.0132414400577547 -0.41226375102996821 0.42560358345508581 1.1022908091545107 1.0000000180025095e-35 2.6462064981460576 2.0090829133987431 1.0132414400577547 1.0000000180025095e-35 -0.48769578337669367 -0.11906965449452399 -0.49574178457260126 1.00337490439415 0.79296293854713451 1.0000000180025095e-35 -0.55836305022239674 1.3470838069915774 -0.028808733448386189 1.2914839386940005 0.39578670263290411 -2.3702688217163081 1.0000000180025095e-35 -0.40485216677188868 1.6726601123809817 -0.82297721505165089 -0.25793522596359247 1.1022908091545107 1.0000000180025095e-35
decision_type=2 2 2 2 2 2 2 2 2 2 2 2 2 2 2 2 2 2 2 2 2 2 2 2 2 2 2 2 2 2
left_child=2 5 3 -1 6 -2 9 -8 24 10 -3 -12 16 19 -15 -16 22 -18 -13 27 21 -7 23 -5 -6 -10 -22 -14 -17 -9
right_child=1 4 -4 12 8 20 7 29 25 -11 11 18 13 14 15 28 17 -19 -20 -21 26 -23 -24 -25 -26 -27 -28 -29 -30 -31
leaf_value=0.19373189677731631 0.15571343623356232 -0.098079949982769352 0.15778060585175843 -0.09479972285638763 0.1382223013839021 -0.032066930742907528 -0.096327919139992932 0.1603047754416696 0.013849080233368453 0.16841763044836713 -0.098891464388158698 -0.06852107706348573 -0.062653851741460154 -0.098048318077674321 -0.055510678769470967 0.13722448660430028 -0.10011875918077945 0.2058322304477109 0.17148392628365394 -0.080923851427907673 -0.10152565362808171 0.11228128422469096 -0.0991151191478057 0.11941654302285476 0.042838247501610471 -0.071904364685144787 0.13552847456919845 0.15637657505209371 0.032623216518705866 0.059616103916971232
leaf_weight=682.80579689145088 497942.47786842287 10765.959012687206 1063.630128890276 106.94924132525921 426.43966192007065 276.8935329914093 625.90209856629372 190.86297404766083 623.72228895127773 67.739154160022736 321.43686136603355 64.705552786588669 31.765006795525551 7886.0722869187593 459.31322704255581 213.0516555160284 391.66307346522808 129.38406881690025 185.54854819178581 75.264417380094528 26.679327562451363 247.22768086194992 782189.33796904981 100.7462210804224 369.60563191771507 356.8275111168623 712.77244724333286 254.42941229045391 235.77463373541832 219.44385047256947
leaf_count=2298 1594666 55149 3408 536 1411 1089 3156 643 2398 218 1616 256 159 39558 2007 746 1957 457 690 350 128 828 3987225 348 1325 1562 2323 828 864 783
internal_value=-0.00101444 0.149275 -0.098218 -0.0985615 -0.0708792 0.155545 -0.0856427 -0.0160327 0.0325101 -0.0919669 -0.0935227 -0.00770077 -0.0988135 -0.0797407 -0.0866235 0.0125871 -0.0990365 -0.0241464 0.109428 0.0877165 0.0892487 0.036022 -0.0990864 0.00910952 0.0939353 -0.0173571 0.126976 0.132066 0.082276 0.106454
internal_weight=1.30724e+06 513424 793820 792757 14218.2 499206 12441.6 1036.21 1776.6 11405.4 11337.6 571.691 792074 9155.67 8794.21 908.14 782918 521.047 250.254 361.459 1263.57 524.121 782397 207.695 796.045 980.55 739.452 286.194 448.826 410.307
internal_count=5708982 1668241 4040741 4037333 69207 1599034 62511 4582 6696 57929 57711 2562 4035035 44512 43175 3617 3990523 2414 946 1337 4368 1917 3988109 884 2736 3960 2451 987 1610 1426
is_linear=0
shrinkage=0.1


Tree=19
num_leaves=31
num_cat=0
split_feature=21 24 16 6 3 3 1 4 16 1 20 4 3 13 16 16 16 20 16 19 1 1 19 22 2 20 22 16 2 2
split_gain=242971 18302.5 4142.52 3271.17 2550.46 2226.09 1382.81 1333.42 1256.35 2987.65 1150.42 1247.33 1429.11 1758.87 1044.36 879.958 913.213 801.576 762.928 740.202 680.901 655.918 675.975 570.837 566.938 584.768 370.565 358.633 336.342 326.284
threshold=-2.3393740653991695 1.0000000180025095e-35 0.8308616876602174 0.97566452622413646 0.32683746516704565 0.32683746516704565 3.0993757247924809 -0.13870492950081822 2.5022189617156987 1.857005298137665 0.0013713609077967706 -0.13870492950081822 0.32683746516704565 -0.18415351957082746 -0.33847242593765253 1.0372147560119631 1.0290017127990725 -0.00081238648272119452 2.4996523857116704 -0.2990457266569137 -1.0788113474845884 1.1461783647537234 -0.53589293360710133 -0.12257644534111022 0.77600809931755077 -0.0014310830156318841 -0.10724196583032607 -0.18961076438426969 -0.56327107548713673 -0.57789257168769825
decision_type=2 2 2 2 2 2 2 2 2 2 2 2 2 2 2 2 2 2 2 2 2 2 2 2 2 2 2 2 2 2
left_child=1 2 10 5 7 8 14 24 9 15 11 12 13 20 -5 16 -3 -16 -17 27 -1 22 -12 -11 25 -4 -14 -19 -25 -21
right_child=-2 3 4 6 -6 -7 -8 -9 -10 23 21 -13 26 -15 17 18 -18 19 -20 29 -22 -23 -24 28 -26 -27 -28 -29 -30 -31
leaf_value=0.25782297996794584 -0.082058325832262621 0.12953615458292098 -0.07254335598882948 0.34805335370319185 0.21924256739918349 0.13985074383674828 0.20847754374517594 0.14321797999271063 0.001764149169874712 -0.0093990114012524589 0.24117273657367147 0.18245368112370819 0.24512181250923615 0.19049329634291595 0.19665162266698918 0.065968797412489552 0.29257138853051545 0.092475637543802836 0.3621063987705368 0.020992220750007867 0.091614557323050877 0.23751143503137132 0.1568067528326228 0.025326355014351418 0.55811271232846438 0.029202511831180489 0.13876215651650678 0.15338867838338338 0.095568281951129319 0.089123416938970218
leaf_weight=256.5194046497345 147686.48463831656 2138.6646537818015 931.58620883896947 172.00905130058527 926.70113744959235 2465.1623218618333 1519.8963179327548 790.67882758378983 6168.4692974798381 4141.5338403917849 1381.4453137740493 26436.755235053599 1495.46620362252 3007.3475559055805 757.28774784877896 2805.7949386127293 409.32021501660347 2541.0718036182225 89.779059588909149 1677.0113793574274 6296.4406455680728 4465.4591860473156 3038.9437033943832 2234.0451037324965 17.643912069499493 1434.9769994542003 419.45403325930238 1559.9177109859884 981.04619438573718 1210.1449265442789
leaf_count=1395 4840845 20563 20596 1424 5996 23708 17434 5548 142303 89138 8882 112286 12834 10774 11049 58565 4671 28347 940 26957 83130 26752 23123 43085 168 27173 4135 16754 21440 18967
internal_value=-0.00548903 0.132803 0.169648 0.0720548 0.0732847 0.0504549 0.121112 0.0306818 0.0388371 0.0567027 0.178094 0.170503 0.142972 0.127178 0.10434 0.112866 0.155727 0.0989279 0.0751507 0.0883378 0.0981209 0.21048 0.183173 0.0151443 -0.00663875 -0.0108493 0.221824 0.115645 0.0467598 0.0495493
internal_weight=229457 81770.6 50899.4 30871.2 4101.59 21433.8 9437.34 3174.89 18968.7 12800.2 46797.8 37912 11475.2 9560.31 7917.44 5443.56 2547.98 7745.43 2895.57 6988.15 6552.96 8885.85 4420.39 7356.63 2384.21 2366.56 1914.92 4100.99 3215.09 2887.16
internal_count=5708982 868137 342792 525345 59481 404413 120932 53485 380705 238402 283311 224554 112268 95299 103498 84739 25234 102074 59505 91025 84525 58757 32005 153663 47937 47769 16969 45101 64525 45924
is_linear=0
shrinkage=0.1


Tree=20
num_leaves=31
num_cat=0
split_feature=7 17 11 20 14 4 14 29 4 3 5 20 5 12 0 36 11 24 3 5 14 17 14 30 18 17 24 20 1 4
split_gain=693614 103777 17376.2 13545.6 9664.65 3546.86 2148.26 1957.93 1810.82 1463.13 1126.86 1109.85 1138.68 780.007 752.104 583.261 543.098 529.081 495.048 389.197 427.055 387.506 304.695 978.579 290.637 241.684 212.786 209.999 152.326 88.5285
threshold=0.10292966291308404 -0.63151186704635609 -0.32446649670600886 -0.00081238648272119452 1.0588897466659548 -0.40485216677188868 -0.7726193070411681 1.0000000180025095e-35 -0.13870492950081822 -0.17235421389341352 -0.20242243260145185 0.0039934553205966958 1.2972156405448916 -0.05078610219061374 0.70713791251182567 1.0000000180025095e-35 -0.29451921582221979 1.0000000180025095e-35 0.32683746516704565 -0.20242243260145185 -0.61264407634735096 6.3214080333709726 -0.72627213597297657 1.0000000180025095e-35 -0.30771693587303156 2.6447335481643681 1.0000000180025095e-35 -0.00017142731667263431 1.1461783647537234 0.1570142209529877
decision_type=2 2 2 2 2 2 2 2 2 2 2 2 2 2 2 2 2 2 2 2 2 2 2 2 2 2 2 2 2 2
left_child=3 7 4 22 5 9 15 -2 -7 10 14 12 -10 18 -3 -5 19 -12 -11 20 -4 -6 23 -1 -25 -24 -15 -17 -13 -29
right_child=1 2 16 6 21 8 -8 -9 11 13 17 28 -14 26 -16 27 -18 -19 -20 -21 -22 -23 25 24 -26 -27 -28 29 -30 -31
leaf_value=-0.077810521009788039 0.16943128843139205 0.14127304350113046 0.11322190451275363 -0.041266090458500056 -0.086762016550406662 -0.088197545224982493 -0.077685755003911797 -0.08490936212201966 0.12779723252633551 -0.087788686411316375 0.023924645473560269 0.068348495507184859 -0.063302031621327318 -0.062308168472340525 0.16112050695165581 0.16242991225297837 -0.081167888794847376 0.12614239560936191 0.13128824258273258 -0.076651192561111525 -0.082232182743797524 0.17249663046840485 -0.086536062212753742 -0.062576035409231109 0.1898395321296954 0.18095757908479548 0.092250732117481679 0.11342802012456484 -0.0057731260590917193 0.02257566010018373
leaf_weight=1306.3383925072849 306.91712075471878 21714.397503331304 401.07003455609083 224.76756504923105 1801.6936234161258 414.35209117084742 678.3296400308609 21860.538065362722 30247.167717263103 103.84128096699715 844.73164407163858 477.25204600393772 315.05195514112711 269.33767441660166 158138.45059937984 1051.7974121049047 3113.3629782311618 1264.178684271872 15413.417541913688 343.42888616770506 154.98618482798338 59.557358495891094 398026.90705780312 58.712008208036423 204.50903524458408 33.779923662543297 133.09058037400246 2515.3546871468425 661.63385993242264 112.03017248213291
leaf_count=17610 1145 75045 2703 1736 20284 4065 6922 261754 113786 1066 4919 2770 3009 1922 516818 3627 35584 4248 54061 4122 1553 200 4552214 565 865 144 566 9342 4702 618
internal_value=-0.00261147 0.125477 0.144918 -0.0843798 0.148489 0.150326 0.0865753 -0.0813879 0.119501 0.155329 0.157872 0.122215 0.125827 0.126258 0.158724 0.115116 -0.0613939 0.0851987 0.129822 0.0070494 0.0587442 -0.0784661 -0.08634 -0.0423666 0.133538 -0.0865134 -0.0111926 0.12467 0.0252877 0.109554
internal_weight=662251 258038 235871 404213 231858 229997 4582.28 22167.5 32115.5 197881 181962 31701.1 30562.2 15919.7 179853 3903.95 4012.85 2108.91 15517.3 899.485 556.056 1861.25 399630 1569.56 263.221 398061 402.428 3679.18 1138.89 2627.38
internal_count=5707965 1114322 851423 4593643 807461 786977 22245 262899 128332 658645 601030 124267 116795 57615 591863 15323 43962 9167 55127 8378 4256 20484 4571398 19040 1430 4552358 2488 13587 7472 9960
is_linear=0
shrinkage=0.1


Tree=21
num_leaves=31
num_cat=0
split_feature=16 0 20 14 6 3 7 20 36 11 11 0 36 13 3 6 0 2 10 18 1 14 0 0 2 0 11 0 12 14
split_gain=506621 83620.2 67129.5 59232.9 47731 52105 22954.9 21395.5 16697.4 16314.8 11497.6 9546.06 6920.55 6751.64 6609.03 8523.69 6437.53 5983.77 5864.28 5373.55 4877.01 3865.1 3137.93 3050.86 2272.58 2037.61 1897.12 1868.37 1647.99 1171.12
threshold=-0.33847242593765253 -1.079078137874603 -0.00145552511094138 1.8451799154281618 1.81317675113678 4.3203709125518808 -0.32309538125991816 -0.001450373150873929 1.0000000180025095e-35 2.4905781745910649 -0.11483551189303397 0.73529899120330822 -0.82297721505165089 0.78681921958923351 0.095555782318115248 -0.19990593940019605 0.067479480057954802 0.66107580065727245 4.0770597457885751 -0.27916437387466425 -0.23839557170867917 -0.5645594298839568 1.1094388365745547 -0.45953470468521113 0.20306342840194705 -1.079078137874603 2.5804200172424321 0.14793965965509417 0.060518229380249984 -0.72627213597297657
decision_type=2 2 2 2 2 2 2 2 2 2 2 2 2 2 2 2 2 2 2 2 2 2 2 2 2 2 2 2 2 2
left_child=1 -1 11 7 5 6 9 8 19 20 12 14 25 18 15 17 -5 26 -14 -2 -4 -10 27 -19 -11 -9 -3 -21 -29 -8
right_child=3 2 4 16 -6 -7 29 10 21 24 -12 -13 13 -15 -16 -17 -18 23 -20 22 -22 -23 -24 -25 -26 -27 -28 28 -30 -31
leaf_value=0.1385734658812354 0.4063038145912945 0.036034252839551029 -0.0012188603147122777 0.13455959161958905 0.1385546845801697 0.13870920195160441 -0.096507037340650526 0.12585663802438388 -0.0088541222799200375 0.047589866041267075 0.010714833798490369 -0.060681376733425774 -0.092630704940494746 0.097882968067502574 0.13875784841084246 0.13891699727174806 -0.064303203390154814 0.1175921329961388 0.099876424352617038 0.13882419192164405 -0.043992549282301341 -0.095117686606092683 -0.090742655199362809 0.078789262043056182 0.019729235919850617 -0.04980291721155064 0.076375450322599667 0.032292768014848948 0.14013263334034742 -0.052416238197585896
leaf_weight=100211.81243290007 414.40206392109394 36619.870816022158 219775.35030166805 14561.332511812449 31545.787766672671 29845.510908558965 20665.89088331908 1875.7290043979883 7255.882570296526 81502.222974747419 11612.751670718193 4203.446889847517 433920.4542638734 1882.0725195258856 25869.003304034472 24777.910293787718 1832.7259200364351 29093.470347911119 1588.2093390822411 2285.4434280246496 30335.676642552018 18278.637136742473 1625.4696433097124 66755.204586178064 45691.317877084017 1019.1522315144539 17101.058334708214 15106.150956943631 1563.7795431911945 8502.9419266879559
leaf_count=328559 2143 137980 924982 47953 103501 97804 117538 6378 31416 293324 47348 20762 2462430 6582 84768 81175 8935 93760 5662 7493 136698 101858 8790 219881 163651 5180 57822 60061 5114 38417
internal_value=0.00214394 0.0533568 0.0406543 -0.0747015 0.019767 0.0111787 0.00181468 -0.0808532 -0.0162855 0.00842215 -0.0875015 0.0884598 -0.090092 -0.0911119 0.091591 0.0845925 0.112328 0.0755931 -0.0919287 0.0497782 -0.00640683 -0.0706051 0.0425994 0.0905673 0.0375816 0.0640151 0.0488761 0.0540338 0.0424091 -0.0836542
internal_weight=1.28732e+06 772496 672285 514822 467865 436319 406473 498428 46529.8 377305 451898 204420 440286 437391 200217 174348 16394.1 149570 435509 20995.2 250111 25534.5 20580.8 95848.7 127194 2894.88 53720.9 18955.4 16669.9 29168.8
internal_count=5707965 2900622 2572063 2807343 1875915 1772414 1674610 2750455 216875 1518655 2533580 696148 2486232 2474674 675386 590618 56888 509443 2468092 83601 1061680 133274 81458 313641 456975 11558 195802 72668 65175 155955
is_linear=0
shrinkage=0.1


Tree=22
num_leaves=31
num_cat=0
split_feature=17 6 0 3 21 20 4 11 17 2 7 7 0 4 14 12 16 3 17 14 20 1 0 14 16 24 7 3 16 21
split_gain=443955 181703 138426 91085 66679.7 50242.6 15799.7 9958.18 6089.09 5144.69 3809.76 2651.05 1810.23 1537.18 1462.46 1097.42 850.684 857.705 763.692 5350.24 1617.29 745.381 589.586 291.281 527.76 313.885 261.989 240.201 226.05 195.975
threshold=-0.25793522596359247 0.19049686938524249 -1.0991931557655332 0.16044024378061297 -2.3393740653991695 -0.0014557418180629609 2.4243146181106572 -0.20467735826969144 -0.63890185952186573 0.67941272258758556 -0.44810356199741358 -0.44810356199741358 0.69909191131591808 2.5227674245834355 -0.58088770508766163 -0.10643826797604559 2.4385676383972172 0.38230320811271673 0.16366240382194522 -0.66558536887168873 -0.0012264585238881407 5.4292979240417489 -0.59631702303886402 3.0327479839324956 1.8995858430862429 1.0000000180025095e-35 0.95411470532417308 -0.14346580952405927 4.0334410667419442 -2.3702688217163081
decision_type=2 2 2 2 2 2 2 2 2 2 2 2 2 2 2 2 2 2 2 2 2 2 2 2 2 2 2 2 2 2
left_child=1 2 21 4 29 9 8 15 -7 13 -11 -8 -9 -6 -3 18 -17 28 19 -2 22 -1 -21 -20 -25 -26 -24 -16 -18 -4
right_child=7 14 3 -5 5 6 11 12 -10 10 -12 -13 -14 -15 27 16 17 -19 23 20 -22 -23 26 24 25 -27 -28 -29 -30 -31
leaf_value=-0.095733878789231203 -0.096873559482072796 -0.096471111431150211 0.1408444350565792 -0.095225503601248832 0.057568688689023456 0.090224825431472866 0.05725388961217695 -0.0739155915166778 0.11556980768612324 -0.0032841531433538832 0.09986183705350167 0.10145729892951615 0.12205374822036555 0.013842936767373507 -0.046642270294860858 -0.078600463603283696 0.098861753281852816 -0.090826289539715679 -0.095318961626300172 -0.08795360908674664 -0.052533754541663064 0.12507790150210349 0.20519836118587192 -0.092736709225444372 0.11743681584505612 -0.047342960051740858 -0.00097120940048930817 0.030976354985556939 -0.053357531513136693 -0.095246072509309262
leaf_weight=58611.493087656796 9283.6073110327125 90919.780348412693 35.212549641728401 34348.303627185524 29646.498278215528 308039.03340819478 145084.47993418574 578.78071002662182 136927.29202744365 73313.555311635137 3764.7873993068933 14967.382127419114 2539.8321274369955 11031.578017324209 681.74057456851006 1934.2251130342484 797.23945698142052 432.74903298169374 343888.88583279401 81.539753645658493 463.24497769773006 153.27391776442528 938.02945229411125 938.39008986949921 239.02753342688084 223.87441523373127 65.970740616321564 960.30244946479797 111.161331564188 23344.007483132184
leaf_count=341267 51673 514066 164 199277 101933 989828 493015 2960 441642 300707 12716 48705 8379 42118 2614 10457 2841 2444 1983199 398 2029 496 3322 5246 840 863 259 3427 426 140654
internal_value=0.0016568 0.038186 0.0528509 0.0639946 0.0713241 0.0767006 0.0883323 -0.0922395 0.0980241 0.0169384 0.00175387 0.0613876 0.085684 0.0457106 -0.0947819 -0.0937834 -0.036164 0.0250384 -0.0943133 -0.0681683 0.103895 -0.0951579 0.170649 -0.0951336 -0.0496338 0.037744 0.191651 -0.00124921 0.0802346 -0.0948905
internal_weight=1.29435e+06 931829 839267 780502 746154 722775 605018 362517 444966 117756 77078.3 160052 3118.61 40678.1 92561.8 359398 3275.37 1341.15 356123 10832.4 1548.78 58764.8 1085.54 345290 1401.29 462.902 1004 1642.04 908.401 23379.2
internal_count=5707965 3632629 3112522 2770759 2571482 2430664 1973190 2075336 1431470 457474 313423 541720 11339 144051 520107 2063997 16168 5711 2047829 57681 6008 341763 3979 1990148 6949 1703 3581 6041 3267 140818
is_linear=0
shrinkage=0.1


Tree=23
num_leaves=31
num_cat=0
split_feature=14 18 15 16 15 17 16 17 33 18 14 16 10 23 16 1 1 16 1 0 10 20 3 20 1 0 15 16 1 15
split_gain=1.54981e+06 54108.5 5298.83 2220.42 1362.73 6004.66 993.273 829.041 753.562 507.267 436.39 1005.38 523.811 361.476 340.428 323.299 243.649 173.431 143.625 138.503 102.644 2577.32 480.402 416.513 385.636 130.186 101.954 100.405 99.5445 97.2865
threshold=0.34563723206520086 1.5305689573287966 -0.41226375102996821 1.055694103240967 2.0379966497421269 1.1278057098388674 2.5489306449890141 4.8246474266052255 1.0000000180025095e-35 1.1022908091545107 1.0000000180025095e-35 0.51619887351989757 1.056369483470917 1.0000000180025095e-35 3.0884258747100835 0.060537843033671386 0.79296293854713451 3.9934022426605229 0.30327789485454565 0.72322997450828563 0.26145096868276602 1.0000000180025095e-35 1.0000000180025095e-35 -0.0010961872758343814 0.86138886213302623 -0.13503360748291013 -0.32059577107429499 1.0423479080200198 0.95045727491378795 -0.43456135690212244
decision_type=2 2 2 2 2 2 2 2 2 2 2 2 2 2 2 2 2 2 2 2 2 2 2 2 2 2 2 2 2 2
left_child=2 9 -1 8 10 -6 18 13 -3 -2 20 -12 -13 17 15 29 -14 -8 -5 -19 -4 23 25 26 -25 -23 -22 -17 -24 -11
right_child=1 3 4 6 5 -7 7 -9 -10 14 11 12 16 -15 -16 27 -18 19 -20 -21 21 22 28 24 -26 -27 -28 -29 -30 -31
leaf_value=0.1694358321174001 0.13890118402669965 0.14484270331334245 -0.096660984512037196 -0.093927564546585796 0.14986562513010271 -0.096529682976234446 -0.0226647530736818 -0.096822848080620694 -0.096026185156720414 0.10865303863440474 0.14493874303236806 -0.095208158342050139 -0.058923332435420042 -0.095993695081262806 0.14466391180668739 0.13039297693377078 0.065853452983693231 0.12360132594028446 -0.042324021207897293 0.042686573710934907 -0.095783796557289635 0.29853637081497814 -0.066596850056460197 -0.06771481595166709 0.086352247288246059 0.15387002359791085 0.19809012960434857 0.032853179069706862 0.10004816240878321 -0.053752482386007133
leaf_weight=754.19144716858864 486948.89916948974 628.47477480769157 666697.12348704785 9511.114416077733 1219.012154340744 5243.2234416604042 257.09569554030895 823.04096126556396 163.71991568803787 41.772957116365433 222.95788043737411 2515.4740529954433 296.67940185964108 196.85652393102646 452.04340556263924 274.79024034738541 331.19398346543312 319.04082107543945 571.77484028041363 627.86225365102291 43751.10222274065 77.750557437539101 121.9650607407093 545.63774907588959 231.34874652326107 311.12755796313286 11.808645248413084 171.33532066643238 50.765123039484024 315.23125287890434
leaf_count=2475 1594903 2072 3729709 53975 3975 29481 1036 4521 947 140 738 13459 1369 1055 1471 898 1149 1126 2231 2329 251218 339 536 2576 946 1215 52 587 193 1244
internal_value=-0.00173863 0.133356 -0.0954888 -0.0672133 -0.0957657 -0.0500506 -0.0776591 -0.0171672 0.0950632 0.138738 -0.0961788 -0.0602588 -0.0748135 0.0296327 0.0752472 0.0361759 0.00689459 0.0501729 -0.0910013 0.0699492 -0.0963487 -0.0917317 0.121154 -0.094416 -0.0218411 0.182794 -0.0957045 0.0929326 -0.0176201 -0.0347495
internal_weight=1.22368e+06 501303 722381 13099 721627 6462.24 12306.8 2223.9 792.195 488204 715165 3366.31 3143.35 1400.86 1255.17 803.13 627.873 1204 10082.9 946.903 711799 45101.5 561.608 44539.9 776.986 388.878 43762.9 446.126 172.73 357.004
internal_count=5707965 1668535 4039430 69292 4036955 33456 66273 10067 3019 1599243 4003499 16715 15977 5546 4340 2869 2518 4491 56206 3455 3986784 257075 2283 254792 3522 1554 251270 1485 729 1384
is_linear=0
shrinkage=0.1


Tree=24
num_leaves=31
num_cat=0
split_feature=21 24 17 6 12 1 17 4 1 2 1 0 1 20 30 20 2 17 0 0 21 6 6 4 1 4 10 20 0 4
split_gain=198926 12405.4 2701.62 2075.22 1456.31 1254.02 1202.83 1028.02 882.04 813.485 796.559 939.232 663.899 815.066 525.319 1373.26 512.338 692.161 497.787 492.187 492.139 488.006 430.976 384.831 370.022 365.126 356.24 346.061 451.86 350.289
threshold=-2.3393740653991695 1.0000000180025095e-35 1.3073943853378298 0.97566452622413646 -0.16209043562412259 -0.10613091662526129 -0.44299592077732081 -0.13870492950081822 1.857005298137665 -0.27463567256927485 -0.58071637153625477 1.7571433186531069 1.857005298137665 -0.00094230059767141927 1.0000000180025095e-35 0.00064819914405234169 -0.57515034079551686 -0.36235447227954859 0.30886003375053411 0.75066345930099498 -2.3702688217163081 1.3944206237792971 0.85061931610107433 1.0000000180025095e-35 -0.28197409212589258 -0.13870492950081822 0.10246727615594865 -0.00094230059767141927 1.5157627463340761 0.1570142209529877
decision_type=2 2 2 2 2 2 2 2 2 2 2 2 2 2 2 2 2 2 2 2 2 2 2 2 2 2 2 2 2 2
left_child=1 2 6 4 7 22 14 9 16 10 11 -3 13 20 18 25 17 -5 -1 -12 -8 26 -4 -15 -22 -16 -10 28 -20 -29
right_child=-2 3 5 8 -6 -7 12 -9 21 -11 19 -13 -14 23 15 -17 -18 -19 27 -21 24 -23 -24 -25 -26 -27 -28 29 -30 -31
leaf_value=0.19726842969899647 -0.08184006318535253 0.086896151562230392 0.03430678842330729 0.097959876466481646 0.11457869933138949 -0.048698554788286968 -0.087405860946633107 0.095317733590422657 0.18672359578396308 0.12939087940637814 0.16885210637747158 0.5153959226062973 0.16368007276646332 0.082784443649065009 0.059642170952231011 0.20221607405324354 0.14570023675988916 0.02721493690124446 0.15897788016917064 0.017643485990585791 0.23274519050897907 0.16890863723534258 0.22435678406631601 0.15831329921588111 0.12089927600347564 0.14170015234482464 0.067646959605374993 0.13083690640149057 0.22729685975690669 0.16332817645734563
leaf_weight=2873.4592802897096 132544.87529715896 212.84526148065925 205.64547372981906 3191.3534275069833 2742.083907365799 1066.4869042597711 67.371114563196898 2587.3368116430938 324.13952198624611 749.16736582666636 218.32066478580236 67.335937082767487 2333.1920904517174 6574.3439050130546 2127.1985475383699 1374.6168282143772 978.39052105695009 2440.6411208510399 19280.092257346958 15390.381358347833 774.68411645665765 2257.7507976219058 284.25107301771641 751.73183757811785 478.49247049540281 727.76927118748426 1117.1145837642252 9475.8264591470361 1019.2827345766127 5106.132501989603
leaf_count=17304 4839728 3911 3752 30924 23744 24026 721 24237 3351 7139 2734 668 17322 66227 25441 10185 12325 37255 62996 341672 4041 22042 1990 3861 4241 5108 14860 70771 5157 20232
internal_value=-0.00477526 0.112907 0.141995 0.0637729 0.0464024 0.0121386 0.145811 0.0366785 0.100786 0.0275597 0.0227583 0.189877 0.116343 0.10357 0.153518 0.120098 0.0789059 0.0673024 0.157262 0.0197585 0.175885 0.139888 0.144579 0.0905345 0.19004 0.0805598 0.0944274 0.153966 0.162408 0.142214
internal_weight=219342 86797.4 54520.6 32276.9 21967.5 1556.38 52964.2 19225.4 10309.4 16638.1 15888.9 280.181 10979.8 8646.62 41984.4 4229.58 6610.39 5631.99 37754.8 15608.7 1320.55 3699 489.897 7326.08 1253.18 2854.97 1441.25 34881.3 20299.4 14582
internal_count=5707965 868237 343375 524862 404105 29768 313607 380361 120757 356124 348985 4579 96413 79091 217194 40734 80504 68179 176460 344406 9003 40253 5742 70088 8282 30549 18211 159156 68153 91003
is_linear=0
shrinkage=0.1


Tree=25
num_leaves=31
num_cat=0
split_feature=7 10 13 20 4 14 3 20 4 24 6 16 0 20 23 36 24 22 5 1 17 2 20 15 17 14 29 20 20 0
split_gain=562760 90697.3 13026.2 11877.7 3370.65 1936.46 1872.39 1403.84 1231.1 927.8 782.914 699.869 624.881 583.365 558.427 442.542 418.311 381.67 363.428 356.902 338.99 298.753 306.578 213.844 200.281 198.392 592.192 261.007 169.947 141.216
threshold=0.10292966291308404 0.26145096868276602 -0.07626765593886374 -0.00087915500625967969 1.0000000180025095e-35 -0.74532178044319142 -0.024445572867989537 0.0039934553205966958 1.0441716909408572 1.0000000180025095e-35 1.2120591402053835 -0.33847242593765253 0.35110162198543554 -0.0013815516140311954 1.0000000180025095e-35 1.0000000180025095e-35 1.0000000180025095e-35 -0.10724196583032607 0.26298247277736669 1.1461783647537234 -0.30209198594093317 -0.57946977019309986 -0.00099954393226653316 2.5855270624160771 -0.52603489160537709 -0.72627213597297657 1.0000000180025095e-35 -0.0014282522606663404 0.00085571195813827227 1.5901884436607363
decision_type=2 2 2 2 2 2 2 2 2 2 2 2 2 2 2 2 2 2 2 2 2 2 2 2 2 2 2 2 2 2
left_child=3 2 4 23 6 15 7 10 18 -4 12 -12 -2 16 17 -5 -8 -15 21 24 -21 -6 -23 25 -9 26 27 -1 -17 -20
right_child=1 -3 9 5 8 -7 13 19 -10 -11 11 -13 -14 14 -16 28 -18 -19 29 20 -22 22 -24 -25 -26 -27 -28 -29 -30 -31
leaf_value=-0.056135997209043109 0.11837815416391401 -0.085802492069853908 -0.081906341105069072 -0.036697112693042308 0.031859488744297997 -0.081568339872090723 -0.08125953872229473 0.042506955317241246 -0.078687505718041673 0.1163265441953953 0.023587431046528468 0.1265665768978049 0.14157251707902174 0.098912115482451463 -0.024371282799690017 0.11943356466724311 0.10601474772567637 0.12514299624103206 -0.044039814127363575 0.027562349732066439 0.13944536780894845 -0.0024901294918157962 0.097808341764769879 0.19898183325184915 0.12633881267768424 -0.085757365872433877 -0.082533777424803639 0.14293483269623378 0.074856774568829443 0.099724834262173823
leaf_weight=98.358013968914747 12680.276246733963 21872.839792877436 3155.5263960957527 232.5719244517386 1056.5761445909739 707.4087647870183 284.23740469664335 364.88899587094784 584.32732343301177 255.19836904853582 668.90609052032232 49351.273600280285 138306.25846042484 13864.95969350636 316.30195640027523 2688.9555250108242 205.5106410831213 9246.265118509531 344.27361574396491 1694.7165504321456 322.30978022515774 327.81301785260439 4332.9527346752584 26.404404267668724 1301.4155041873455 356971.10191970319 1055.1624442711473 199.35253716260195 1254.1568949297071 85.241969235241413
leaf_count=1083 42330 281130 46600 1968 4920 8296 1615 1631 8668 981 2249 160627 446192 48528 1149 8969 691 31156 3167 8110 1140 1774 16591 107 4942 4552455 16462 985 5017 569
internal_value=-0.00302948 0.109097 0.126952 -0.0834806 0.129764 0.0714295 0.131818 0.134911 0.0600198 -0.0670741 0.136032 0.125189 0.139625 0.105342 0.1076 0.0973491 -0.00267452 0.109406 0.0732055 0.0737334 0.0454406 0.0798701 0.0907539 -0.0855915 0.107981 -0.0856125 -0.0473907 0.0771655 0.105255 -0.0155082
internal_weight=623856 260622 238749 363233 235339 4883.09 228607 204690 6731.18 3410.72 201007 50020.2 150987 23917.3 23427.5 4175.68 489.748 23111.2 6146.86 3683.33 2017.03 5717.34 4660.77 358350 1666.3 358324 1352.87 297.711 3943.11 429.516
internal_count=5710102 1114760 833630 4595342 786049 24250 750360 667221 35689 47581 651398 162876 488522 83139 80833 15954 2306 79684 27021 15823 9250 23285 18365 4571092 6573 4570985 18530 2068 13986 3736
is_linear=0
shrinkage=0.1


Tree=26
num_leaves=31
num_cat=0
split_feature=19 33 14 6 12 20 11 11 13 13 1 16 13 2 33 30 10 10 2 1 16 19 11 16 6 33 20 29 14 10
split_gain=485962 66096.1 54328.6 47383.3 55087.4 38443.9 14207.8 8174.92 7100.47 5028.55 4813.97 4724.39 3917.84 3765.5 3362.61 3031.11 2905.43 2839.74 1992.19 1352.03 1330.24 2589.67 1241.69 1185.58 935.758 812.32 713.47 1498.45 651.067 543.78
threshold=-0.62657579779624928 1.0000000180025095e-35 1.8451799154281618 0.23337482661008838 0.11617039516568185 -0.0014555694651789961 2.4905781745910649 -0.11483551189303397 -0.18415351957082746 -0.18415351957082746 -0.23839557170867917 1.8995858430862429 0.51710456609725963 0.69781091809272777 1.0000000180025095e-35 1.0000000180025095e-35 2.0632661581039433 -0.21550012379884717 0.17583722621202472 2.1091109514236455 -0.098240494728088365 -0.5906270146369933 2.520525455474854 1.055694103240967 2.5459998846054082 1.0000000180025095e-35 -0.0014505421277135608 1.0000000180025095e-35 -0.74532178044319142 -0.10951099172234534
decision_type=2 2 2 2 2 2 2 2 2 2 2 2 2 2 2 2 2 2 2 2 2 2 2 2 2 2 2 2 2 2
left_child=1 3 7 4 5 9 8 12 10 13 -7 23 14 22 16 -15 26 18 -8 -16 21 -9 -1 25 -18 -4 27 -2 -10 -19
right_child=2 -3 11 -5 -6 6 17 20 28 -11 -12 -13 -14 15 19 -17 24 29 -20 -21 -22 -23 -24 -25 -26 -27 -28 -29 -30 -31
leaf_value=0.037411628460064038 -0.086678402891371395 0.12660716362219726 -0.089594035238717687 0.12707899128546257 0.12663384626402291 0.0029385270557052991 0.045759090228439367 -0.029396042312977114 -0.093041708335659307 -0.04204767835212575 -0.036283346052194403 -0.051044434189707777 0.077117369842382336 0.068614220275461976 0.13095314948826484 0.10851533090413823 -0.012877455014424794 0.0020954572383237746 0.020609149703716811 -0.089939808923013315 -0.01626759009611697 0.17333812849247154 0.06754619788272978 0.12830108813102856 0.1403485393870593 0.12983792953061726 -0.092366666584513549 -0.02086616887709444 -0.05332682310040171 -0.045354823617330002
leaf_weight=37855.770711272955 17829.309997096658 98455.562772780657 434.2462867051363 56053.811776295304 55100.897687867284 223540.17189493775 80375.466850608587 1280.0593532472849 6222.2861482948065 4281.9198847711086 36386.649609722197 1791.1500373780727 1403.396966278553 62510.391569390893 961.3393260538578 27376.315582498908 1795.4143874645233 5149.4693219065666 51791.236601218581 389.29960551857948 5956.0552452504635 1240.8423939198256 21405.201632261276 13178.048431843519 512.287691578269 275.88686069846153 392040.71564351022 4292.5423915982246 12262.866998791695 4548.4163666516542
leaf_count=138359 107990 338649 2201 192437 189509 954847 283461 5604 41407 17175 171216 8611 5060 206827 3262 87741 8370 20721 183468 2151 25750 4187 71270 44965 1690 940 2491117 23377 56482 21258
internal_value=0.00264103 0.0499945 -0.081018 0.0389807 0.0311273 0.0219545 0.00631384 -0.0877202 -0.00681085 0.0647978 -0.00255207 0.101806 -0.0896861 0.0678652 -0.0902464 0.0807667 -0.0907573 0.0320713 0.0359038 0.0672844 0.00950411 0.0703941 0.0482963 0.121519 0.0211372 -0.00434468 -0.0913807 -0.0739081 -0.0666952 -0.0201593
internal_weight=1.2267e+06 783316 443381 684861 628807 573706 420277 427701 278412 153430 259927 15679.3 419224 149148 417821 89886.7 416470 141865 132167 1350.64 8476.96 2520.9 59261 13888.2 2307.7 710.133 414163 22121.9 18485.2 9697.89
internal_count=5710102 2974827 2735275 2636178 2443741 2254232 1732860 2678558 1223952 521372 1126063 56717 2643017 504197 2637957 294568 2632544 508908 466929 5413 35541 9791 209629 48106 10060 3141 2622484 131367 97889 41979
is_linear=0
shrinkage=0.1


Tree=27
num_leaves=31
num_cat=0
split_feature=17 6 0 3 21 20 4 10 17 4 0 1 20 23 10 0 14 30 1 18 4 17 14 0 4 18 10 12 0 14
split_gain=368919 148309 109433 71249.3 52311.3 36635 11805 11031 5618.47 4876.26 5246.04 2076.03 1820.09 1509.4 1504.78 2658.46 1332.4 727.373 558.217 449.684 415.998 382.324 4043.15 878.081 350.661 350.538 317.211 256.288 235.385 218.402
